{"learner":{"attributes":{},"feature_names":[],"feature_types":[],"gradient_booster":{"model":{"gbtree_model_param":{"num_parallel_tree":"1","num_trees":"500"},"iteration_indptr":[0,1,2,3,4,5,6,7,8,9,10,11,12,13,14,15,16,17,18,19,20,21,22,23,24,25,26,27,28,29,30,31,32,33,34,35,36,37,38,39,40,41,42,43,44,45,46,47,48,49,50,51,52,53,54,55,56,57,58,59,60,61,62,63,64,65,66,67,68,69,70,71,72,73,74,75,76,77,78,79,80,81,82,83,84,85,86,87,88,89,90,91,92,93,94,95,96,97,98,99,100,101,102,103,104,105,106,107,108,109,110,111,112,113,114,115,116,117,118,119,120,121,122,123,124,125,126,127,128,129,130,131,132,133,134,135,136,137,138,139,140,141,142,143,144,145,146,147,148,149,150,151,152,153,154,155,156,157,158,159,160,161,162,163,164,165,166,167,168,169,170,171,172,173,174,175,176,177,178,179,180,181,182,183,184,185,186,187,188,189,190,191,192,193,194,195,196,197,198,199,200,201,202,203,204,205,206,207,208,209,210,211,212,213,214,215,216,217,218,219,220,221,222,223,224,225,226,227,228,229,230,231,232,233,234,235,236,237,238,239,240,241,242,243,244,245,246,247,248,249,250,251,252,253,254,255,256,257,258,259,260,261,262,263,264,265,266,267,268,269,270,271,272,273,274,275,276,277,278,279,280,281,282,283,284,285,286,287,288,289,290,291,292,293,294,295,296,297,298,299,300,301,302,303,304,305,306,307,308,309,310,311,312,313,314,315,316,317,318,319,320,321,322,323,324,325,326,327,328,329,330,331,332,333,334,335,336,337,338,339,340,341,342,343,344,345,346,347,348,349,350,351,352,353,354,355,356,357,358,359,360,361,362,363,364,365,366,367,368,369,370,371,372,373,374,375,376,377,378,379,380,381,382,383,384,385,386,387,388,389,390,391,392,393,394,395,396,397,398,399,400,401,402,403,404,405,406,407,408,409,410,411,412,413,414,415,416,417,418,419,420,421,422,423,424,425,426,427,428,429,430,431,432,433,434,435,436,437,438,439,440,441,442,443,444,445,446,447,448,449,450,451,452,453,454,455,456,457,458,459,460,461,462,463,464,465,466,467,468,469,470,471,472,473,474,475,476,477,478,479,480,481,482,483,484,485,486,487,488,489,490,491,492,493,494,495,496,497,498,499,500],"tree_info":[0,0,0,0,0,0,0,0,0,0,0,0,0,0,0,0,0,0,0,0,0,0,0,0,0,0,0,0,0,0,0,0,0,0,0,0,0,0,0,0,0,0,0,0,0,0,0,0,0,0,0,0,0,0,0,0,0,0,0,0,0,0,0,0,0,0,0,0,0,0,0,0,0,0,0,0,0,0,0,0,0,0,0,0,0,0,0,0,0,0,0,0,0,0,0,0,0,0,0,0,0,0,0,0,0,0,0,0,0,0,0,0,0,0,0,0,0,0,0,0,0,0,0,0,0,0,0,0,0,0,0,0,0,0,0,0,0,0,0,0,0,0,0,0,0,0,0,0,0,0,0,0,0,0,0,0,0,0,0,0,0,0,0,0,0,0,0,0,0,0,0,0,0,0,0,0,0,0,0,0,0,0,0,0,0,0,0,0,0,0,0,0,0,0,0,0,0,0,0,0,0,0,0,0,0,0,0,0,0,0,0,0,0,0,0,0,0,0,0,0,0,0,0,0,0,0,0,0,0,0,0,0,0,0,0,0,0,0,0,0,0,0,0,0,0,0,0,0,0,0,0,0,0,0,0,0,0,0,0,0,0,0,0,0,0,0,0,0,0,0,0,0,0,0,0,0,0,0,0,0,0,0,0,0,0,0,0,0,0,0,0,0,0,0,0,0,0,0,0,0,0,0,0,0,0,0,0,0,0,0,0,0,0,0,0,0,0,0,0,0,0,0,0,0,0,0,0,0,0,0,0,0,0,0,0,0,0,0,0,0,0,0,0,0,0,0,0,0,0,0,0,0,0,0,0,0,0,0,0,0,0,0,0,0,0,0,0,0,0,0,0,0,0,0,0,0,0,0,0,0,0,0,0,0,0,0,0,0,0,0,0,0,0,0,0,0,0,0,0,0,0,0,0,0,0,0,0,0,0,0,0,0,0,0,0,0,0,0,0,0,0,0,0,0,0,0,0,0,0,0,0,0,0,0,0,0,0,0,0,0,0,0,0,0,0,0,0,0,0,0,0,0,0,0,0,0,0,0,0,0,0,0,0,0,0,0,0,0,0,0,0,0,0,0,0,0,0,0,0,0,0,0,0,0,0,0,0,0,0,0,0,0,0,0,0,0,0,0,0,0],"trees":[{"base_weights":[1.314228E-7,-5.7874184E0,2.2657661E0,-8.438227E0,-3.5150237E0,8.5963297E-1,6.872194E0,-8.543846E0,1.5509849E1,5.0997453E0,-3.8117218E0,-3.1017518E-1,2.1488411E0,6.4120326E0,1.4534552E1,-1.0476014E1,-7.9862466E0,1.558354E2,-1.9894001E0,1.700802E1,1.5910677E0,-5.679484E0,-2.6008613E0,-6.0861224E-1,5.612309E0,1.9687258E0,9.526844E0,4.7159357E0,8.554149E0,6.837999E1,1.3971819E1,-7.3458343E0,-1.0942569E1,-7.951333E0,-4.817282E1,-3.131675E-2,2.3610187E0,2.304199E1,-4.7264566E0,-4.5581565E0,4.9714058E1,-4.563812E-1,1.3768478E1,3.282224E1,-5.749602E0,2.8165724E0,-3.005738E0,-6.957497E-1,9.54884E0,5.049655E-1,1.1255149E1,3.1133735E0,4.4374344E-1,1.5262414E1,3.226678E0,6.155794E0,3.1030464E0,3.9364173E0,9.170598E0,1.9520166E0,4.259275E0,8.350006E0,1.863554E1,-8.896046E-2,-5.2546714E-2,-1.0459868E-1,-1.5650734E-1,-4.202644E-1,-7.925198E-2,-7.1664596E-1,1.4868324E-1,4.1018654E-2,4.9401245E-1,-7.602704E-2,1.197356E-1,-5.160887E-2,1.2592748E-2,2.255866E-1,1.1798562E0,-4.0958505E-2,4.2676866E-2,5.131483E-1,-2.4028413E-2,-6.286678E-2,1.9240124E0,1.1466438E-1,-5.9090964E-2,-1.2708243E-2,2.8113568E-1,-3.0935273E-2,2.0567918E-1,-1.0834878E-2,9.765855E-3,-2.7189707E-2,1.7001009E-1,8.689543E-3,-4.083126E-1,9.563074E-2,1.0391135E0,2.2416841E-2,6.467695E-2,-8.142651E-3,2.5289677E-2,1.2462829E-1,4.9289337E-1,-3.855801E-1,3.9692655E-2,5.8322158E-2,1.4977954E-1,1.9029012E-2,5.5862352E-2,4.3481983E-2,-3.173112E-1,9.938574E-2,5.223138E-2,5.3518657E-2,2.1018654E-2,6.8667665E-2,5.243306E-1,4.3275905E-1,1.5823582E-1],"categories":[],"categories_nodes":[],"categories_segments":[],"categories_sizes":[],"default_left":[0,0,0,0,0,0,0,0,0,0,0,0,0,0,0,0,0,0,0,0,0,0,0,0,0,0,0,0,0,0,0,0,0,0,0,0,0,0,0,0,0,0,0,0,0,0,0,0,0,0,0,0,0,0,0,0,0,0,0,0,0,0,0,0,0,0,0,0,0,0,0,0,0,0,0,0,0,0,0,0,0,0,0,0,0,0,0,0,0,0,0,0,0,0,0,0,0,0,0,0,0,0,0,0,0,0,0,0,0,0,0,0,0,0,0,0,0,0,0,0,0],"id":0,"left_children":[1,3,5,7,9,11,13,15,17,19,21,23,25,27,29,31,33,35,37,39,41,43,45,47,49,51,53,55,57,59,61,63,65,67,69,-1,-1,71,73,75,77,79,81,83,85,87,89,91,93,95,97,99,101,103,105,107,109,111,113,-1,115,117,119,-1,-1,-1,-1,-1,-1,-1,-1,-1,-1,-1,-1,-1,-1,-1,-1,-1,-1,-1,-1,-1,-1,-1,-1,-1,-1,-1,-1,-1,-1,-1,-1,-1,-1,-1,-1,-1,-1,-1,-1,-1,-1,-1,-1,-1,-1,-1,-1,-1,-1,-1,-1,-1,-1,-1,-1,-1,-1],"loss_changes":[1.2336912E6,1.5941719E5,4.3793394E5,3.1034062E4,3.6452484E4,7.8123125E4,5.5658625E4,1.30215E4,1.3291197E5,1.9819527E4,3.1150047E4,4.800664E4,3.2729125E4,5.4160312E4,2.616361E4,3.893375E3,1.2867375E4,7.729775E4,3.4660112E3,7.640378E4,9.181489E3,1.4818172E4,1.8349613E4,2.2892543E4,3.7546676E4,4.1991758E4,2.1162027E4,1.9321281E4,1.8725844E4,7.235565E4,2.3100266E4,1.1073145E3,5.2133438E3,8.0710625E3,1.2913117E4,0E0,0E0,2.2936006E3,2.252534E3,2.3791797E2,7.7057875E4,5.4504995E3,3.2303527E4,6.3619188E4,1.4922922E4,6.0213867E4,1.6166523E4,1.6625457E4,2.015902E4,1.0341938E4,9.605385E4,4.016608E4,2.7063305E4,2.8630914E4,8.872137E3,1.2470297E4,1.1701504E4,1.1564629E4,1.7573562E4,0E0,5.251259E0,2.6055783E4,3.2850453E4,0E0,0E0,0E0,0E0,0E0,0E0,0E0,0E0,0E0,0E0,0E0,0E0,0E0,0E0,0E0,0E0,0E0,0E0,0E0,0E0,0E0,0E0,0E0,0E0,0E0,0E0,0E0,0E0,0E0,0E0,0E0,0E0,0E0,0E0,0E0,0E0,0E0,0E0,0E0,0E0,0E0,0E0,0E0,0E0,0E0,0E0,0E0,0E0,0E0,0E0,0E0,0E0,0E0,0E0,0E0,0E0,0E0,0E0],"parents":[2147483647,0,0,1,1,2,2,3,3,4,4,5,5,6,6,7,7,8,8,9,9,10,10,11,11,12,12,13,13,14,14,15,15,16,16,17,17,18,18,19,19,20,20,21,21,22,22,23,23,24,24,25,25,26,26,27,27,28,28,29,29,30,30,31,31,32,32,33,33,34,34,37,37,38,38,39,39,40,40,41,41,42,42,43,43,44,44,45,45,46,46,47,47,48,48,49,49,50,50,51,51,52,52,53,53,54,54,55,55,56,56,57,57,58,58,60,60,61,61,62,62],"right_children":[2,4,6,8,10,12,14,16,18,20,22,24,26,28,30,32,34,36,38,40,42,44,46,48,50,52,54,56,58,60,62,64,66,68,70,-1,-1,72,74,76,78,80,82,84,86,88,90,92,94,96,98,100,102,104,106,108,110,112,114,-1,116,118,120,-1,-1,-1,-1,-1,-1,-1,-1,-1,-1,-1,-1,-1,-1,-1,-1,-1,-1,-1,-1,-1,-1,-1,-1,-1,-1,-1,-1,-1,-1,-1,-1,-1,-1,-1,-1,-1,-1,-1,-1,-1,-1,-1,-1,-1,-1,-1,-1,-1,-1,-1,-1,-1,-1,-1,-1,-1,-1],"split_conditions":[2.4644E2,1.082E1,9.4977E2,5.2E1,1.103E1,4.9641E2,9.05E3,7.78E0,2.44E1,1.99E1,7.873E1,4.7E1,1.335E4,1.73665E3,4E0,7.39E0,4.88E2,1.99E1,2.1E1,2.55E2,3.5E1,1E2,1.2E1,1E2,4.4E1,1.823E1,4.4E1,2.138E1,1.946E1,1.73665E3,4.8E1,7.224E1,1.8E1,1E1,7.873E1,-3.131675E-2,2.3610187E0,3.38E1,6.6E1,1.7E1,1.749E1,1.1E1,3.8E1,6.179E1,1.37E1,3.1E1,1.05E2,1.4999E2,8E0,1.3499E3,8.6E1,1.709E1,1.975E3,4.2E1,2.6E1,3.75E3,1.975E3,6E1,4.719E1,1.9520166E0,1.659E2,2.585E4,9.8E3,-8.896046E-2,-5.2546714E-2,-1.0459868E-1,-1.5650734E-1,-4.202644E-1,-7.925198E-2,-7.1664596E-1,1.4868324E-1,4.1018654E-2,4.9401245E-1,-7.602704E-2,1.197356E-1,-5.160887E-2,1.2592748E-2,2.255866E-1,1.1798562E0,-4.0958505E-2,4.2676866E-2,5.131483E-1,-2.4028413E-2,-6.286678E-2,1.9240124E0,1.1466438E-1,-5.9090964E-2,-1.2708243E-2,2.8113568E-1,-3.0935273E-2,2.0567918E-1,-1.0834878E-2,9.765855E-3,-2.7189707E-2,1.7001009E-1,8.689543E-3,-4.083126E-1,9.563074E-2,1.0391135E0,2.2416841E-2,6.467695E-2,-8.142651E-3,2.5289677E-2,1.2462829E-1,4.9289337E-1,-3.855801E-1,3.9692655E-2,5.8322158E-2,1.4977954E-1,1.9029012E-2,5.5862352E-2,4.3481983E-2,-3.173112E-1,9.938574E-2,5.223138E-2,5.3518657E-2,2.1018654E-2,6.8667665E-2,5.243306E-1,4.3275905E-1,1.5823582E-1],"split_indices":[0,2,0,6,2,0,3,2,1,1,0,5,3,0,5,2,1,1,4,3,4,3,6,4,4,2,6,2,2,0,4,0,5,6,0,0,0,0,4,5,1,5,4,0,1,4,4,1,5,1,5,2,3,6,4,3,3,4,2,0,1,3,3,0,0,0,0,0,0,0,0,0,0,0,0,0,0,0,0,0,0,0,0,0,0,0,0,0,0,0,0,0,0,0,0,0,0,0,0,0,0,0,0,0,0,0,0,0,0,0,0,0,0,0,0,0,0,0,0,0,0],"split_type":[0,0,0,0,0,0,0,0,0,0,0,0,0,0,0,0,0,0,0,0,0,0,0,0,0,0,0,0,0,0,0,0,0,0,0,0,0,0,0,0,0,0,0,0,0,0,0,0,0,0,0,0,0,0,0,0,0,0,0,0,0,0,0,0,0,0,0,0,0,0,0,0,0,0,0,0,0,0,0,0,0,0,0,0,0,0,0,0,0,0,0,0,0,0,0,0,0,0,0,0,0,0,0,0,0,0,0,0,0,0,0,0,0,0,0,0,0,0,0,0,0],"sum_hessian":[9.408E4,2.6469E4,6.7611E4,1.2216E4,1.4253E4,5.18E4,1.5811E4,1.2163E4,5.3E1,4.74E2,1.3779E4,2.7158E4,2.4642E4,1.4917E4,8.94E2,2.72E3,9.443E3,5E0,4.8E1,1.07E2,3.67E2,5.418E3,8.361E3,2.5856E4,1.302E3,2.4056E4,5.86E2,8.327E3,6.59E3,8E0,8.86E2,3.55E2,2.365E3,9.436E3,7E0,2E0,3E0,4E0,4.4E1,6.5E1,4.2E1,3.15E2,5.2E1,9E0,5.409E3,5.81E2,7.78E3,2.5637E4,2.19E2,6.84E2,6.18E2,1.3741E4,1.0315E4,3.06E2,2.8E2,4.398E3,3.929E3,7.77E2,5.813E3,2E0,6E0,4.03E2,4.83E2,2.02E2,1.53E2,2.148E3,2.17E2,6E0,9.43E3,5E0,2E0,3E0,1E0,3.8E1,6E0,5.9E1,6E0,3.1E1,1.1E1,1.78E2,1.37E2,1.5E1,3.7E1,8E0,1E0,4.9E1,5.36E3,5.01E2,8E1,7.752E3,2.8E1,2.0812E4,4.825E3,8.3E1,1.36E2,6.79E2,5E0,6.08E2,1E1,1.0908E4,2.833E3,6.434E3,3.881E3,2.84E2,2.2E1,4E0,2.76E2,4.244E3,1.54E2,2.65E3,1.279E3,7.69E2,8E0,4.865E3,9.48E2,3E0,3E0,3.91E2,1.2E1,4.8E1,4.35E2],"tree_param":{"num_deleted":"0","num_feature":"7","num_nodes":"121","size_leaf_vector":"1"}},{"base_weights":[1.0939168E-4,-5.7293305E0,2.2431767E0,-8.353726E0,-3.4795778E0,8.510607E-1,6.803685E0,-8.4585285E0,1.540861E1,5.052658E0,-3.7734334E0,-3.0704123E-1,2.127368E0,6.3479233E0,1.4392794E1,-1.0371402E1,-7.9064965E0,1.5466533E2,-1.9576952E0,1.6850592E1,1.5764906E0,-5.622336E0,-2.5747998E0,-6.025207E-1,5.55675E0,1.9490427E0,9.432038E0,4.6688104E0,8.468589E0,6.792136E1,1.3833436E1,-1.081394E1,-7.0984616E0,-7.8718724E0,-4.776209E1,-3.1107971E-2,2.343311E0,2.2918575E1,-4.678221E0,-4.513166E0,4.9249603E1,-4.5181218E-1,1.3640023E1,3.268013E1,-5.6920958E0,2.7888684E0,-2.9756582E0,-6.8879235E-1,9.454E0,4.99332E-1,1.114443E1,3.0822458E0,4.3930763E-1,1.5111802E1,3.1931798E0,6.094284E0,3.0720353E0,3.8967013E0,9.078918E0,1.9390031E0,4.22733E0,8.267974E0,1.8450407E1,-1.0342847E-1,-1.4832512E-1,-7.973E-2,-1.1370254E-2,-4.1666213E-1,-7.8459546E-2,-7.1067387E-1,1.4769202E-1,4.0711015E-2,4.9154234E-1,-7.528627E-2,1.18709296E-1,-5.1101383E-2,1.2484815E-2,2.2340122E-1,1.1690407E0,-4.0551208E-2,4.225319E-2,5.0833756E-1,-2.3794448E-2,-6.2307958E-2,1.9143924E0,1.13540664E-1,-5.850017E-2,-1.258141E-2,2.7835903E-1,-3.062596E-2,2.0369332E-1,-1.0726537E-2,9.668219E-3,-2.6921052E-2,1.6832238E-1,8.602771E-3,-4.0491E-1,9.4676E-2,1.029667E0,2.219269E-2,6.40304E-2,-8.061239E-3,2.503685E-2,1.2338638E-1,4.8817873E-1,-3.8249546E-1,3.9297156E-2,5.7739075E-2,1.4829142E-1,1.8838799E-2,5.5304162E-2,4.3047734E-2,-3.1449065E-1,9.8392084E-2,5.170961E-2,5.3117264E-2,2.0861013E-2,6.798274E-2,5.1949066E-1,4.285198E-1,1.566571E-1],"categories":[],"categories_nodes":[],"categories_segments":[],"categories_sizes":[],"default_left":[0,0,0,0,0,0,0,0,0,0,0,0,0,0,0,0,0,0,0,0,0,0,0,0,0,0,0,0,0,0,0,0,0,0,0,0,0,0,0,0,0,0,0,0,0,0,0,0,0,0,0,0,0,0,0,0,0,0,0,0,0,0,0,0,0,0,0,0,0,0,0,0,0,0,0,0,0,0,0,0,0,0,0,0,0,0,0,0,0,0,0,0,0,0,0,0,0,0,0,0,0,0,0,0,0,0,0,0,0,0,0,0,0,0,0,0,0,0,0,0,0],"id":1,"left_children":[1,3,5,7,9,11,13,15,17,19,21,23,25,27,29,31,33,35,37,39,41,43,45,47,49,51,53,55,57,59,61,63,65,67,69,-1,-1,71,73,75,77,79,81,83,85,87,89,91,93,95,97,99,101,103,105,107,109,111,113,-1,115,117,119,-1,-1,-1,-1,-1,-1,-1,-1,-1,-1,-1,-1,-1,-1,-1,-1,-1,-1,-1,-1,-1,-1,-1,-1,-1,-1,-1,-1,-1,-1,-1,-1,-1,-1,-1,-1,-1,-1,-1,-1,-1,-1,-1,-1,-1,-1,-1,-1,-1,-1,-1,-1,-1,-1,-1,-1,-1,-1],"loss_changes":[1.2090966E6,1.5625619E5,4.292464E5,3.0554875E4,3.575736E4,7.656739E4,5.4599562E4,1.27626875E4,1.3089504E5,1.9453941E4,3.0524188E4,4.7059844E4,3.2081758E4,5.3081E4,2.5858125E4,3.8643438E3,1.26565625E4,7.614509E4,3.4233684E3,7.497605E4,9.010569E3,1.4665484E4,1.7987195E4,2.2439848E4,3.6816215E4,4.1156242E4,2.075223E4,1.8937156E4,1.8355906E4,7.139729E4,2.2639422E4,4.380625E3,1.69575E3,7.9388125E3,1.2708094E4,0E0,0E0,2.2722678E3,2.2121028E3,2.333899E2,7.567186E4,5.342729E3,3.1699621E4,6.2967457E4,1.4629875E4,5.9029793E4,1.5854414E4,1.6294662E4,1.9761025E4,1.0169585E4,9.433278E4,3.936717E4,2.6524875E4,2.8093688E4,8.72757E3,1.2224703E4,1.1468875E4,1.1356949E4,1.7223562E4,0E0,5.172798E0,2.558286E4,3.2216969E4,0E0,0E0,0E0,0E0,0E0,0E0,0E0,0E0,0E0,0E0,0E0,0E0,0E0,0E0,0E0,0E0,0E0,0E0,0E0,0E0,0E0,0E0,0E0,0E0,0E0,0E0,0E0,0E0,0E0,0E0,0E0,0E0,0E0,0E0,0E0,0E0,0E0,0E0,0E0,0E0,0E0,0E0,0E0,0E0,0E0,0E0,0E0,0E0,0E0,0E0,0E0,0E0,0E0,0E0,0E0,0E0,0E0,0E0],"parents":[2147483647,0,0,1,1,2,2,3,3,4,4,5,5,6,6,7,7,8,8,9,9,10,10,11,11,12,12,13,13,14,14,15,15,16,16,17,17,18,18,19,19,20,20,21,21,22,22,23,23,24,24,25,25,26,26,27,27,28,28,29,29,30,30,31,31,32,32,33,33,34,34,37,37,38,38,39,39,40,40,41,41,42,42,43,43,44,44,45,45,46,46,47,47,48,48,49,49,50,50,51,51,52,52,53,53,54,54,55,55,56,56,57,57,58,58,60,60,61,61,62,62],"right_children":[2,4,6,8,10,12,14,16,18,20,22,24,26,28,30,32,34,36,38,40,42,44,46,48,50,52,54,56,58,60,62,64,66,68,70,-1,-1,72,74,76,78,80,82,84,86,88,90,92,94,96,98,100,102,104,106,108,110,112,114,-1,116,118,120,-1,-1,-1,-1,-1,-1,-1,-1,-1,-1,-1,-1,-1,-1,-1,-1,-1,-1,-1,-1,-1,-1,-1,-1,-1,-1,-1,-1,-1,-1,-1,-1,-1,-1,-1,-1,-1,-1,-1,-1,-1,-1,-1,-1,-1,-1,-1,-1,-1,-1,-1,-1,-1,-1,-1,-1,-1,-1],"split_conditions":[2.4644E2,1.082E1,9.4977E2,5.2E1,1.103E1,4.9641E2,9.05E3,7.78E0,2.44E1,1.99E1,7.873E1,4.7E1,1.335E4,1.73665E3,4E0,1.1613E2,4.88E2,1.99E1,2.1E1,2.55E2,3.5E1,1E2,1.2E1,1E2,4.4E1,1.823E1,4.4E1,2.138E1,1.946E1,1.73665E3,4.8E1,1.8E1,7.9E1,1E1,7.873E1,-3.1107971E-2,2.343311E0,3.38E1,6.6E1,1.7E1,1.749E1,1.1E1,3.8E1,6.179E1,1.37E1,3.1E1,1.05E2,1.4999E2,8E0,1.3499E3,8.6E1,1.709E1,1.975E3,4.2E1,2.6E1,3.75E3,1.975E3,6E1,4.719E1,1.9390031E0,1.659E2,2.585E4,9.8E3,-1.0342847E-1,-1.4832512E-1,-7.973E-2,-1.1370254E-2,-4.1666213E-1,-7.8459546E-2,-7.1067387E-1,1.4769202E-1,4.0711015E-2,4.9154234E-1,-7.528627E-2,1.18709296E-1,-5.1101383E-2,1.2484815E-2,2.2340122E-1,1.1690407E0,-4.0551208E-2,4.225319E-2,5.0833756E-1,-2.3794448E-2,-6.2307958E-2,1.9143924E0,1.13540664E-1,-5.850017E-2,-1.258141E-2,2.7835903E-1,-3.062596E-2,2.0369332E-1,-1.0726537E-2,9.668219E-3,-2.6921052E-2,1.6832238E-1,8.602771E-3,-4.0491E-1,9.4676E-2,1.029667E0,2.219269E-2,6.40304E-2,-8.061239E-3,2.503685E-2,1.2338638E-1,4.8817873E-1,-3.8249546E-1,3.9297156E-2,5.7739075E-2,1.4829142E-1,1.8838799E-2,5.5304162E-2,4.3047734E-2,-3.1449065E-1,9.8392084E-2,5.170961E-2,5.3117264E-2,2.0861013E-2,6.798274E-2,5.1949066E-1,4.285198E-1,1.566571E-1],"split_indices":[0,2,0,6,2,0,3,2,1,1,0,5,3,0,5,0,1,1,4,3,4,3,6,4,4,2,6,2,2,0,4,5,1,6,0,0,0,0,4,5,1,5,4,0,1,4,4,1,5,1,5,2,3,6,4,3,3,4,2,0,1,3,3,0,0,0,0,0,0,0,0,0,0,0,0,0,0,0,0,0,0,0,0,0,0,0,0,0,0,0,0,0,0,0,0,0,0,0,0,0,0,0,0,0,0,0,0,0,0,0,0,0,0,0,0,0,0,0,0,0,0],"split_type":[0,0,0,0,0,0,0,0,0,0,0,0,0,0,0,0,0,0,0,0,0,0,0,0,0,0,0,0,0,0,0,0,0,0,0,0,0,0,0,0,0,0,0,0,0,0,0,0,0,0,0,0,0,0,0,0,0,0,0,0,0,0,0,0,0,0,0,0,0,0,0,0,0,0,0,0,0,0,0,0,0,0,0,0,0,0,0,0,0,0,0,0,0,0,0,0,0,0,0,0,0,0,0,0,0,0,0,0,0,0,0,0,0,0,0,0,0,0,0,0,0],"sum_hessian":[9.408E4,2.6469E4,6.7611E4,1.2216E4,1.4253E4,5.18E4,1.5811E4,1.2163E4,5.3E1,4.74E2,1.3779E4,2.7158E4,2.4642E4,1.4917E4,8.94E2,2.72E3,9.443E3,5E0,4.8E1,1.07E2,3.67E2,5.418E3,8.361E3,2.5856E4,1.302E3,2.4056E4,5.86E2,8.327E3,6.59E3,8E0,8.86E2,2.394E3,3.26E2,9.436E3,7E0,2E0,3E0,4E0,4.4E1,6.5E1,4.2E1,3.15E2,5.2E1,9E0,5.409E3,5.81E2,7.78E3,2.5637E4,2.19E2,6.84E2,6.18E2,1.3741E4,1.0315E4,3.06E2,2.8E2,4.398E3,3.929E3,7.77E2,5.813E3,2E0,6E0,4.03E2,4.83E2,2.146E3,2.48E2,2.84E2,4.2E1,6E0,9.43E3,5E0,2E0,3E0,1E0,3.8E1,6E0,5.9E1,6E0,3.1E1,1.1E1,1.78E2,1.37E2,1.5E1,3.7E1,8E0,1E0,4.9E1,5.36E3,5.01E2,8E1,7.752E3,2.8E1,2.0812E4,4.825E3,8.3E1,1.36E2,6.79E2,5E0,6.08E2,1E1,1.0908E4,2.833E3,6.434E3,3.881E3,2.84E2,2.2E1,4E0,2.76E2,4.244E3,1.54E2,2.65E3,1.279E3,7.69E2,8E0,4.865E3,9.48E2,3E0,3E0,3.91E2,1.2E1,4.8E1,4.35E2],"tree_param":{"num_deleted":"0","num_feature":"7","num_nodes":"121","size_leaf_vector":"1"}},{"base_weights":[2.1737495E-4,-5.6718225E0,2.2208128E0,-8.270067E0,-3.444488E0,8.4257406E-1,6.73586E0,-8.374058E0,1.5308002E1,5.006005E0,-3.7355287E0,-3.0393863E-1,2.1061091E0,6.284455E0,1.4252425E1,-1.0267814E1,-7.8275437E0,1.5350404E2,-1.9263701E0,1.669462E1,1.562047E0,-5.5657606E0,-2.548999E0,-5.623801E-1,6.272649E0,1.9295565E0,9.338176E0,4.6221557E0,8.383884E0,6.746581E1,1.3696424E1,-7.174017E0,-1.0728981E1,-7.7932057E0,-4.7354843E1,-3.0900585E-2,2.325736E0,2.2795841E1,-4.630474E0,-4.468619E0,4.8789486E1,-4.472887E-1,1.3512764E1,3.253854E1,-5.6351647E0,2.7614365E0,-2.9458792E0,-6.506686E-1,9.745256E0,5.1128654E0,4.1051792E1,3.0514293E0,4.3491632E-1,1.4962676E1,3.1600268E0,6.0333877E0,3.0413337E0,3.8573852E0,8.988155E0,1.9260764E0,4.195626E0,8.1867485E0,1.826711E1,-8.6962014E-2,-5.1209167E-2,-1.02546334E-1,-1.5355791E-1,-4.1309074E-1,-7.767503E-2,-7.0475155E-1,1.467074E-1,4.040568E-2,4.8908466E-1,-7.4552715E-2,1.1769178E-1,-5.0598882E-2,1.2377804E-2,2.21237E-1,1.1583245E0,-4.014796E-2,4.183372E-2,5.0357187E-1,-2.3562767E-2,-6.1754107E-2,1.9048203E0,1.12427965E-1,-5.7915278E-2,-1.2455842E-2,2.756098E-1,-3.0319737E-2,2.0172662E-1,-1.0367037E-2,9.875735E-3,9.845355E-3,2.042349E-1,-2.202226E-3,1.0184959E-1,8.975017E-2,1.5891196E0,2.1970782E-2,6.339032E-2,-7.980637E-3,2.4786545E-2,1.2215686E-1,4.8350915E-1,-3.7943548E-1,3.8905606E-2,5.716182E-2,1.4681807E-1,1.865048E-2,5.4751553E-2,4.2617813E-2,-3.116952E-1,9.740837E-2,5.1193066E-2,5.2718893E-2,2.0704558E-2,6.730465E-2,5.146954E-1,4.2432204E-1,1.5509412E-1],"categories":[],"categories_nodes":[],"categories_segments":[],"categories_sizes":[],"default_left":[0,0,0,0,0,0,0,0,0,0,0,0,0,0,0,0,0,0,0,0,0,0,0,0,0,0,0,0,0,0,0,0,0,0,0,0,0,0,0,0,0,0,0,0,0,0,0,0,0,0,0,0,0,0,0,0,0,0,0,0,0,0,0,0,0,0,0,0,0,0,0,0,0,0,0,0,0,0,0,0,0,0,0,0,0,0,0,0,0,0,0,0,0,0,0,0,0,0,0,0,0,0,0,0,0,0,0,0,0,0,0,0,0,0,0,0,0,0,0,0,0],"id":2,"left_children":[1,3,5,7,9,11,13,15,17,19,21,23,25,27,29,31,33,35,37,39,41,43,45,47,49,51,53,55,57,59,61,63,65,67,69,-1,-1,71,73,75,77,79,81,83,85,87,89,91,93,95,97,99,101,103,105,107,109,111,113,-1,115,117,119,-1,-1,-1,-1,-1,-1,-1,-1,-1,-1,-1,-1,-1,-1,-1,-1,-1,-1,-1,-1,-1,-1,-1,-1,-1,-1,-1,-1,-1,-1,-1,-1,-1,-1,-1,-1,-1,-1,-1,-1,-1,-1,-1,-1,-1,-1,-1,-1,-1,-1,-1,-1,-1,-1,-1,-1,-1,-1],"loss_changes":[1.1849916E6,1.5315756E5,4.207311E5,3.0083125E4,3.5075516E4,7.5042625E4,5.3560812E4,1.25089375E4,1.28908695E5,1.9095098E4,2.9910781E4,4.6164676E4,3.144718E4,5.202325E4,2.5556062E4,3.80525E3,1.24491875E4,7.5009625E4,3.3812756E3,7.357501E4,8.842829E3,1.4514453E4,1.7631941E4,2.3788578E4,4.1215453E4,4.0337367E4,2.0350379E4,1.856064E4,1.799325E4,7.0451625E4,2.2187766E4,1.0680391E3,5.03525E3,7.808625E3,1.2506334E4,0E0,0E0,2.2511292E3,2.1723987E3,2.2894849E2,7.431074E4,5.2370894E3,3.1106996E4,6.232247E4,1.4342609E4,5.7869E4,1.5548336E4,1.6388264E4,2.0747777E4,2.6916916E4,1.2333272E5,3.858415E4,2.5997146E4,2.7566531E4,8.585364E3,1.1983969E4,1.1240867E4,1.1153001E4,1.6880562E4,0E0,5.095497E0,2.5118512E4,3.1595703E4,0E0,0E0,0E0,0E0,0E0,0E0,0E0,0E0,0E0,0E0,0E0,0E0,0E0,0E0,0E0,0E0,0E0,0E0,0E0,0E0,0E0,0E0,0E0,0E0,0E0,0E0,0E0,0E0,0E0,0E0,0E0,0E0,0E0,0E0,0E0,0E0,0E0,0E0,0E0,0E0,0E0,0E0,0E0,0E0,0E0,0E0,0E0,0E0,0E0,0E0,0E0,0E0,0E0,0E0,0E0,0E0,0E0,0E0],"parents":[2147483647,0,0,1,1,2,2,3,3,4,4,5,5,6,6,7,7,8,8,9,9,10,10,11,11,12,12,13,13,14,14,15,15,16,16,17,17,18,18,19,19,20,20,21,21,22,22,23,23,24,24,25,25,26,26,27,27,28,28,29,29,30,30,31,31,32,32,33,33,34,34,37,37,38,38,39,39,40,40,41,41,42,42,43,43,44,44,45,45,46,46,47,47,48,48,49,49,50,50,51,51,52,52,53,53,54,54,55,55,56,56,57,57,58,58,60,60,61,61,62,62],"right_children":[2,4,6,8,10,12,14,16,18,20,22,24,26,28,30,32,34,36,38,40,42,44,46,48,50,52,54,56,58,60,62,64,66,68,70,-1,-1,72,74,76,78,80,82,84,86,88,90,92,94,96,98,100,102,104,106,108,110,112,114,-1,116,118,120,-1,-1,-1,-1,-1,-1,-1,-1,-1,-1,-1,-1,-1,-1,-1,-1,-1,-1,-1,-1,-1,-1,-1,-1,-1,-1,-1,-1,-1,-1,-1,-1,-1,-1,-1,-1,-1,-1,-1,-1,-1,-1,-1,-1,-1,-1,-1,-1,-1,-1,-1,-1,-1,-1,-1,-1,-1,-1],"split_conditions":[2.4644E2,1.082E1,9.4977E2,5.2E1,1.103E1,4.9641E2,9.05E3,7.78E0,2.44E1,1.99E1,7.873E1,5.1E1,1.335E4,1.73665E3,4E0,7.39E0,4.88E2,1.99E1,2.1E1,2.55E2,3.5E1,1E2,1.2E1,1E2,4.8762E2,1.823E1,4.4E1,2.138E1,1.946E1,1.73665E3,4.8E1,7.224E1,1.8E1,1E1,7.873E1,-3.0900585E-2,2.325736E0,3.38E1,6.6E1,1.7E1,1.749E1,1.1E1,3.8E1,6.179E1,1.37E1,3.1E1,1.05E2,1.4999E2,1.029E2,4.4E1,4.7E1,1.709E1,1.975E3,4.2E1,2.6E1,3.75E3,1.975E3,6E1,4.719E1,1.9260764E0,1.659E2,2.585E4,9.8E3,-8.6962014E-2,-5.1209167E-2,-1.02546334E-1,-1.5355791E-1,-4.1309074E-1,-7.767503E-2,-7.0475155E-1,1.467074E-1,4.040568E-2,4.8908466E-1,-7.4552715E-2,1.1769178E-1,-5.0598882E-2,1.2377804E-2,2.21237E-1,1.1583245E0,-4.014796E-2,4.183372E-2,5.0357187E-1,-2.3562767E-2,-6.1754107E-2,1.9048203E0,1.12427965E-1,-5.7915278E-2,-1.2455842E-2,2.756098E-1,-3.0319737E-2,2.0172662E-1,-1.0367037E-2,9.875735E-3,9.845355E-3,2.042349E-1,-2.202226E-3,1.0184959E-1,8.975017E-2,1.5891196E0,2.1970782E-2,6.339032E-2,-7.980637E-3,2.4786545E-2,1.2215686E-1,4.8350915E-1,-3.7943548E-1,3.8905606E-2,5.716182E-2,1.4681807E-1,1.865048E-2,5.4751553E-2,4.2617813E-2,-3.116952E-1,9.740837E-2,5.1193066E-2,5.2718893E-2,2.0704558E-2,6.730465E-2,5.146954E-1,4.2432204E-1,1.5509412E-1],"split_indices":[0,2,0,6,2,0,3,2,1,1,0,5,3,0,5,2,1,1,4,3,4,3,6,4,0,2,6,2,2,0,4,0,5,6,0,0,0,0,4,5,1,5,4,0,1,4,4,1,1,4,6,2,3,6,4,3,3,4,2,0,1,3,3,0,0,0,0,0,0,0,0,0,0,0,0,0,0,0,0,0,0,0,0,0,0,0,0,0,0,0,0,0,0,0,0,0,0,0,0,0,0,0,0,0,0,0,0,0,0,0,0,0,0,0,0,0,0,0,0,0,0],"split_type":[0,0,0,0,0,0,0,0,0,0,0,0,0,0,0,0,0,0,0,0,0,0,0,0,0,0,0,0,0,0,0,0,0,0,0,0,0,0,0,0,0,0,0,0,0,0,0,0,0,0,0,0,0,0,0,0,0,0,0,0,0,0,0,0,0,0,0,0,0,0,0,0,0,0,0,0,0,0,0,0,0,0,0,0,0,0,0,0,0,0,0,0,0,0,0,0,0,0,0,0,0,0,0,0,0,0,0,0,0,0,0,0,0,0,0,0,0,0,0,0,0],"sum_hessian":[9.408E4,2.6469E4,6.7611E4,1.2216E4,1.4253E4,5.18E4,1.5811E4,1.2163E4,5.3E1,4.74E2,1.3779E4,2.7158E4,2.4642E4,1.4917E4,8.94E2,2.72E3,9.443E3,5E0,4.8E1,1.07E2,3.67E2,5.418E3,8.361E3,2.6132E4,1.026E3,2.4056E4,5.86E2,8.327E3,6.59E3,8E0,8.86E2,3.55E2,2.365E3,9.436E3,7E0,2E0,3E0,4E0,4.4E1,6.5E1,4.2E1,3.15E2,5.2E1,9E0,5.409E3,5.81E2,7.78E3,2.5911E4,2.21E2,9.94E2,3.2E1,1.3741E4,1.0315E4,3.06E2,2.8E2,4.398E3,3.929E3,7.77E2,5.813E3,2E0,6E0,4.03E2,4.83E2,2.02E2,1.53E2,2.148E3,2.17E2,6E0,9.43E3,5E0,2E0,3E0,1E0,3.8E1,6E0,5.9E1,6E0,3.1E1,1.1E1,1.78E2,1.37E2,1.5E1,3.7E1,8E0,1E0,4.9E1,5.36E3,5.01E2,8E1,7.752E3,2.8E1,2.097E4,4.941E3,1.22E2,9.9E1,4.85E2,5.09E2,2.6E1,6E0,1.0908E4,2.833E3,6.434E3,3.881E3,2.84E2,2.2E1,4E0,2.76E2,4.244E3,1.54E2,2.65E3,1.279E3,7.69E2,8E0,4.865E3,9.48E2,3E0,3E0,3.91E2,1.2E1,4.8E1,4.35E2],"tree_param":{"num_deleted":"0","num_feature":"7","num_nodes":"121","size_leaf_vector":"1"}},{"base_weights":[3.3496233E-4,-5.6148934E0,2.1986887E0,-8.18725E0,-3.4097512E0,8.34194E-1,6.668711E0,-8.290436E0,1.5208025E1,4.9597826E0,-3.6980038E0,-3.0082557E-1,2.0850627E0,6.2216206E0,1.4113433E1,-1.0165279E1,-7.7493796E0,1.5235149E2,-1.8954202E0,1.6540094E1,1.5477351E0,-5.5097523E0,-2.5234566E0,-5.9080064E-1,5.4537306E0,1.910265E0,9.245245E0,4.575968E0,8.300027E0,6.701332E1,1.3560769E1,-1.0601764E1,-6.937319E0,-7.715326E0,-4.6951046E1,-3.069458E-2,2.308293E0,2.267378E1,-4.583211E0,-4.4245114E0,4.8333675E1,-4.428107E-1,1.3386693E1,3.239746E1,-5.5788026E0,2.7342746E0,-2.9163978E0,-6.7534685E-1,9.264594E0,4.8928806E-1,1.0938689E1,3.0209212E0,4.3056846E-1,1.48150215E1,3.1272151E0,5.9730997E0,3.0109394E0,3.8184655E0,8.898299E0,1.9132359E0,4.1641583E0,8.106321E0,1.8085636E1,-1.0139137E-1,-1.4548169E-1,-7.8014694E-2,-1.04847895E-2,-4.0954992E-1,-7.6898366E-2,-6.988786E-1,1.4572936E-1,4.010264E-2,4.8663923E-1,-7.3826306E-2,1.1668299E-1,-5.0101325E-2,1.2271709E-2,2.190938E-1,1.1477065E0,-3.974873E-2,4.1418407E-2,4.9885088E-1,-2.3333345E-2,-6.1205182E-2,1.8952963E0,1.1132618E-1,-5.733623E-2,-1.233153E-2,2.7288774E-1,-3.0016575E-2,1.9977891E-1,-1.0515604E-2,9.472824E-3,-2.705317E-2,1.6536184E-1,8.471658E-3,-4.0151736E-1,9.2843674E-2,1.0153353E0,2.1751093E-2,6.2756635E-2,-7.900846E-3,2.453874E-2,1.2093957E-1,4.788843E-1,-3.7640002E-1,3.851796E-2,5.6590334E-2,1.4535937E-1,1.8464051E-2,5.4204468E-2,4.2192187E-2,-3.089246E-1,9.643449E-2,5.0681677E-2,5.2323498E-2,2.0549275E-2,6.663332E-2,5.099443E-1,4.201654E-1,1.5354674E-1],"categories":[],"categories_nodes":[],"categories_segments":[],"categories_sizes":[],"default_left":[0,0,0,0,0,0,0,0,0,0,0,0,0,0,0,0,0,0,0,0,0,0,0,0,0,0,0,0,0,0,0,0,0,0,0,0,0,0,0,0,0,0,0,0,0,0,0,0,0,0,0,0,0,0,0,0,0,0,0,0,0,0,0,0,0,0,0,0,0,0,0,0,0,0,0,0,0,0,0,0,0,0,0,0,0,0,0,0,0,0,0,0,0,0,0,0,0,0,0,0,0,0,0,0,0,0,0,0,0,0,0,0,0,0,0,0,0,0,0,0,0],"id":3,"left_children":[1,3,5,7,9,11,13,15,17,19,21,23,25,27,29,31,33,35,37,39,41,43,45,47,49,51,53,55,57,59,61,63,65,67,69,-1,-1,71,73,75,77,79,81,83,85,87,89,91,93,95,97,99,101,103,105,107,109,111,113,-1,115,117,119,-1,-1,-1,-1,-1,-1,-1,-1,-1,-1,-1,-1,-1,-1,-1,-1,-1,-1,-1,-1,-1,-1,-1,-1,-1,-1,-1,-1,-1,-1,-1,-1,-1,-1,-1,-1,-1,-1,-1,-1,-1,-1,-1,-1,-1,-1,-1,-1,-1,-1,-1,-1,-1,-1,-1,-1,-1,-1],"loss_changes":[1.1613725E6,1.5012081E5,4.1238178E5,2.9618812E4,3.440667E4,7.354565E4,5.2541812E4,1.2260375E4,1.26952555E5,1.8742875E4,2.9309719E4,4.5322844E4,3.082514E4,5.0986562E4,2.5257328E4,3.7602188E3,1.22450625E4,7.389111E4,3.3397253E3,7.2200164E4,8.678212E3,1.4365E4,1.7283695E4,2.155125E4,3.547503E4,3.9534805E4,1.9956316E4,1.819161E4,1.7637781E4,6.951847E4,2.1745125E4,4.2250312E3,1.6558711E3,7.6806875E3,1.2307787E4,0E0,0E0,2.2301829E3,2.1334087E3,2.2459143E2,7.297412E4,5.1335376E3,3.0525457E4,6.1684156E4,1.4060969E4,5.6731043E4,1.5248156E4,1.5651847E4,1.91936E4,9.997011E3,9.182873E4,3.7816695E4,2.5479926E4,2.7049273E4,8.4454795E3,1.1747984E4,1.1017391E4,1.095272E4,1.6544438E4,0E0,5.019333E0,2.466259E4,3.098639E4,0E0,0E0,0E0,0E0,0E0,0E0,0E0,0E0,0E0,0E0,0E0,0E0,0E0,0E0,0E0,0E0,0E0,0E0,0E0,0E0,0E0,0E0,0E0,0E0,0E0,0E0,0E0,0E0,0E0,0E0,0E0,0E0,0E0,0E0,0E0,0E0,0E0,0E0,0E0,0E0,0E0,0E0,0E0,0E0,0E0,0E0,0E0,0E0,0E0,0E0,0E0,0E0,0E0,0E0,0E0,0E0,0E0,0E0],"parents":[2147483647,0,0,1,1,2,2,3,3,4,4,5,5,6,6,7,7,8,8,9,9,10,10,11,11,12,12,13,13,14,14,15,15,16,16,17,17,18,18,19,19,20,20,21,21,22,22,23,23,24,24,25,25,26,26,27,27,28,28,29,29,30,30,31,31,32,32,33,33,34,34,37,37,38,38,39,39,40,40,41,41,42,42,43,43,44,44,45,45,46,46,47,47,48,48,49,49,50,50,51,51,52,52,53,53,54,54,55,55,56,56,57,57,58,58,60,60,61,61,62,62],"right_children":[2,4,6,8,10,12,14,16,18,20,22,24,26,28,30,32,34,36,38,40,42,44,46,48,50,52,54,56,58,60,62,64,66,68,70,-1,-1,72,74,76,78,80,82,84,86,88,90,92,94,96,98,100,102,104,106,108,110,112,114,-1,116,118,120,-1,-1,-1,-1,-1,-1,-1,-1,-1,-1,-1,-1,-1,-1,-1,-1,-1,-1,-1,-1,-1,-1,-1,-1,-1,-1,-1,-1,-1,-1,-1,-1,-1,-1,-1,-1,-1,-1,-1,-1,-1,-1,-1,-1,-1,-1,-1,-1,-1,-1,-1,-1,-1,-1,-1,-1,-1,-1],"split_conditions":[2.4644E2,1.082E1,9.4977E2,5.2E1,1.103E1,4.9641E2,9.05E3,7.78E0,2.44E1,1.99E1,7.873E1,4.7E1,1.335E4,1.73665E3,4E0,1.1613E2,4.88E2,1.99E1,2.1E1,2.55E2,3.5E1,1E2,1.2E1,1E2,4.4E1,1.823E1,4.4E1,2.138E1,1.946E1,1.73665E3,4.8E1,1.8E1,7.9E1,1E1,7.873E1,-3.069458E-2,2.308293E0,3.38E1,6.6E1,1.7E1,1.749E1,1.1E1,3.8E1,6.179E1,1.37E1,3.1E1,1.05E2,1.4999E2,8E0,1.3499E3,8.6E1,1.709E1,1.975E3,4.2E1,2.6E1,3.75E3,1.975E3,6E1,4.719E1,1.9132359E0,1.659E2,2.585E4,9.8E3,-1.0139137E-1,-1.4548169E-1,-7.8014694E-2,-1.04847895E-2,-4.0954992E-1,-7.6898366E-2,-6.988786E-1,1.4572936E-1,4.010264E-2,4.8663923E-1,-7.3826306E-2,1.1668299E-1,-5.0101325E-2,1.2271709E-2,2.190938E-1,1.1477065E0,-3.974873E-2,4.1418407E-2,4.9885088E-1,-2.3333345E-2,-6.1205182E-2,1.8952963E0,1.1132618E-1,-5.733623E-2,-1.233153E-2,2.7288774E-1,-3.0016575E-2,1.9977891E-1,-1.0515604E-2,9.472824E-3,-2.705317E-2,1.6536184E-1,8.471658E-3,-4.0151736E-1,9.2843674E-2,1.0153353E0,2.1751093E-2,6.2756635E-2,-7.900846E-3,2.453874E-2,1.2093957E-1,4.788843E-1,-3.7640002E-1,3.851796E-2,5.6590334E-2,1.4535937E-1,1.8464051E-2,5.4204468E-2,4.2192187E-2,-3.089246E-1,9.643449E-2,5.0681677E-2,5.2323498E-2,2.0549275E-2,6.663332E-2,5.099443E-1,4.201654E-1,1.5354674E-1],"split_indices":[0,2,0,6,2,0,3,2,1,1,0,5,3,0,5,0,1,1,4,3,4,3,6,4,4,2,6,2,2,0,4,5,1,6,0,0,0,0,4,5,1,5,4,0,1,4,4,1,5,1,5,2,3,6,4,3,3,4,2,0,1,3,3,0,0,0,0,0,0,0,0,0,0,0,0,0,0,0,0,0,0,0,0,0,0,0,0,0,0,0,0,0,0,0,0,0,0,0,0,0,0,0,0,0,0,0,0,0,0,0,0,0,0,0,0,0,0,0,0,0,0],"split_type":[0,0,0,0,0,0,0,0,0,0,0,0,0,0,0,0,0,0,0,0,0,0,0,0,0,0,0,0,0,0,0,0,0,0,0,0,0,0,0,0,0,0,0,0,0,0,0,0,0,0,0,0,0,0,0,0,0,0,0,0,0,0,0,0,0,0,0,0,0,0,0,0,0,0,0,0,0,0,0,0,0,0,0,0,0,0,0,0,0,0,0,0,0,0,0,0,0,0,0,0,0,0,0,0,0,0,0,0,0,0,0,0,0,0,0,0,0,0,0,0,0],"sum_hessian":[9.408E4,2.6469E4,6.7611E4,1.2216E4,1.4253E4,5.18E4,1.5811E4,1.2163E4,5.3E1,4.74E2,1.3779E4,2.7158E4,2.4642E4,1.4917E4,8.94E2,2.72E3,9.443E3,5E0,4.8E1,1.07E2,3.67E2,5.418E3,8.361E3,2.5856E4,1.302E3,2.4056E4,5.86E2,8.327E3,6.59E3,8E0,8.86E2,2.394E3,3.26E2,9.436E3,7E0,2E0,3E0,4E0,4.4E1,6.5E1,4.2E1,3.15E2,5.2E1,9E0,5.409E3,5.81E2,7.78E3,2.5637E4,2.19E2,6.84E2,6.18E2,1.3741E4,1.0315E4,3.06E2,2.8E2,4.398E3,3.929E3,7.77E2,5.813E3,2E0,6E0,4.03E2,4.83E2,2.146E3,2.48E2,2.84E2,4.2E1,6E0,9.43E3,5E0,2E0,3E0,1E0,3.8E1,6E0,5.9E1,6E0,3.1E1,1.1E1,1.78E2,1.37E2,1.5E1,3.7E1,8E0,1E0,4.9E1,5.36E3,5.01E2,8E1,7.752E3,2.8E1,2.0812E4,4.825E3,8.3E1,1.36E2,6.79E2,5E0,6.08E2,1E1,1.0908E4,2.833E3,6.434E3,3.881E3,2.84E2,2.2E1,4E0,2.76E2,4.244E3,1.54E2,2.65E3,1.279E3,7.69E2,8E0,4.865E3,9.48E2,3E0,3E0,3.91E2,1.2E1,4.8E1,4.35E2],"tree_param":{"num_deleted":"0","num_feature":"7","num_nodes":"121","size_leaf_vector":"1"}},{"base_weights":[4.3893643E-4,-5.5585327E0,2.1767683E0,-8.105257E0,-3.3753643E0,8.2587534E-1,6.602232E0,-8.207644E0,1.510867E1,4.9139876E0,-3.6608553E0,-2.9778618E-1,2.0642269E0,6.159415E0,1.3975802E1,-1.006375E1,-7.6719956E0,1.5120758E2,-1.8648419E0,1.6387E1,1.5335549E0,-5.4543066E0,-2.4981701E0,-5.8488756E-1,5.399742E0,1.8911664E0,9.153239E0,4.530241E0,8.217009E0,6.6563866E1,1.3426458E1,-7.005916E0,-1.0519593E1,-7.638224E0,-4.6550686E1,-3.0489948E-2,2.290981E0,2.2552391E1,-4.536427E0,-4.38084E0,4.7882122E1,-4.3837684E-1,1.3261798E1,3.2256893E1,-5.523005E0,2.70738E0,-2.8872118E0,-6.685937E-1,9.172577E0,4.8382157E-1,1.0831092E1,2.9907181E0,4.262644E-1,1.4668825E1,3.0947406E0,5.913415E0,2.9808483E0,3.7799377E0,8.809341E0,1.9004809E0,4.1329274E0,8.026686E0,1.7905966E1,-8.500522E-2,-4.9902607E-2,-1.00534506E-1,-1.506648E-1,-4.0603954E-1,-7.612946E-2,-6.9305474E-1,1.4475784E-1,3.980187E-2,4.8420605E-1,-7.310698E-2,1.15682855E-1,-4.9608663E-2,1.21665215E-2,2.1697132E-1,1.1371859E0,-3.9353456E-2,4.1007232E-2,7.457533E-1,3.8478285E-2,-6.0661137E-2,1.8858198E0,1.1023518E-1,-5.6762975E-2,-1.2208455E-2,2.7019253E-1,-2.9716443E-2,1.9785002E-1,-1.0410456E-2,9.378114E-3,-2.6785862E-2,1.637203E-1,8.387067E-3,-3.9817142E-1,9.191676E-2,1.006105E0,2.1533601E-2,6.2129296E-2,-7.821848E-3,2.4293413E-2,9.5983523E-1,1.3550642E-1,-3.7338877E-1,3.813417E-2,5.6024566E-2,1.4391515E-1,1.827948E-2,5.3662837E-2,4.177081E-2,-3.0617857E-1,9.547033E-2,5.0175387E-2,5.1931076E-2,2.039516E-2,6.5968685E-2,5.0523716E-1,4.1604948E-1,1.5201479E-1],"categories":[],"categories_nodes":[],"categories_segments":[],"categories_sizes":[],"default_left":[0,0,0,0,0,0,0,0,0,0,0,0,0,0,0,0,0,0,0,0,0,0,0,0,0,0,0,0,0,0,0,0,0,0,0,0,0,0,0,0,0,0,0,0,0,0,0,0,0,0,0,0,0,0,0,0,0,0,0,0,0,0,0,0,0,0,0,0,0,0,0,0,0,0,0,0,0,0,0,0,0,0,0,0,0,0,0,0,0,0,0,0,0,0,0,0,0,0,0,0,0,0,0,0,0,0,0,0,0,0,0,0,0,0,0,0,0,0,0,0,0],"id":4,"left_children":[1,3,5,7,9,11,13,15,17,19,21,23,25,27,29,31,33,35,37,39,41,43,45,47,49,51,53,55,57,59,61,63,65,67,69,-1,-1,71,73,75,77,79,81,83,85,87,89,91,93,95,97,99,101,103,105,107,109,111,113,-1,115,117,119,-1,-1,-1,-1,-1,-1,-1,-1,-1,-1,-1,-1,-1,-1,-1,-1,-1,-1,-1,-1,-1,-1,-1,-1,-1,-1,-1,-1,-1,-1,-1,-1,-1,-1,-1,-1,-1,-1,-1,-1,-1,-1,-1,-1,-1,-1,-1,-1,-1,-1,-1,-1,-1,-1,-1,-1,-1,-1],"loss_changes":[1.1382185E6,1.4714388E5,4.0420125E5,2.916175E4,3.3750594E4,7.208108E4,5.1542375E4,1.20165E4,1.2502612E5,1.8397146E4,2.8720703E4,4.4428992E4,3.0215414E4,4.9970562E4,2.496189E4,3.7190625E3,1.2044375E4,7.2789266E4,3.2987102E3,7.0851016E4,8.516658E3,1.4217125E4,1.6942332E4,2.1125078E4,3.4784965E4,3.874818E4,1.9569902E4,1.7829938E4,1.7289312E4,6.859768E4,2.1311312E4,1.0300703E3,4.8632656E3,7.5548125E3,1.2112404E4,0E0,0E0,2.2094258E3,2.0951199E3,2.203175E2,7.1661516E4,5.0320347E3,3.0304844E4,6.1052438E4,1.3784844E4,5.5615465E4,1.4953789E4,1.5340413E4,1.881467E4,9.830414E3,9.018325E4,3.7064523E4,2.4972979E4,2.6613242E4,8.30788E3,1.1516625E4,1.0798359E4,1.0756036E4,1.6215E4,0E0,4.9443283E0,2.4214938E4,3.038886E4,0E0,0E0,0E0,0E0,0E0,0E0,0E0,0E0,0E0,0E0,0E0,0E0,0E0,0E0,0E0,0E0,0E0,0E0,0E0,0E0,0E0,0E0,0E0,0E0,0E0,0E0,0E0,0E0,0E0,0E0,0E0,0E0,0E0,0E0,0E0,0E0,0E0,0E0,0E0,0E0,0E0,0E0,0E0,0E0,0E0,0E0,0E0,0E0,0E0,0E0,0E0,0E0,0E0,0E0,0E0,0E0,0E0,0E0],"parents":[2147483647,0,0,1,1,2,2,3,3,4,4,5,5,6,6,7,7,8,8,9,9,10,10,11,11,12,12,13,13,14,14,15,15,16,16,17,17,18,18,19,19,20,20,21,21,22,22,23,23,24,24,25,25,26,26,27,27,28,28,29,29,30,30,31,31,32,32,33,33,34,34,37,37,38,38,39,39,40,40,41,41,42,42,43,43,44,44,45,45,46,46,47,47,48,48,49,49,50,50,51,51,52,52,53,53,54,54,55,55,56,56,57,57,58,58,60,60,61,61,62,62],"right_children":[2,4,6,8,10,12,14,16,18,20,22,24,26,28,30,32,34,36,38,40,42,44,46,48,50,52,54,56,58,60,62,64,66,68,70,-1,-1,72,74,76,78,80,82,84,86,88,90,92,94,96,98,100,102,104,106,108,110,112,114,-1,116,118,120,-1,-1,-1,-1,-1,-1,-1,-1,-1,-1,-1,-1,-1,-1,-1,-1,-1,-1,-1,-1,-1,-1,-1,-1,-1,-1,-1,-1,-1,-1,-1,-1,-1,-1,-1,-1,-1,-1,-1,-1,-1,-1,-1,-1,-1,-1,-1,-1,-1,-1,-1,-1,-1,-1,-1,-1,-1,-1],"split_conditions":[2.4644E2,1.082E1,9.4977E2,5.2E1,1.103E1,4.9641E2,9.05E3,7.78E0,2.44E1,1.99E1,7.873E1,4.7E1,1.335E4,1.73665E3,4E0,7.39E0,4.88E2,1.99E1,2.1E1,2.55E2,3.5E1,1E2,1.2E1,1E2,4.4E1,1.823E1,4.4E1,2.138E1,1.946E1,1.73665E3,4.8E1,7.224E1,1.8E1,1E1,7.873E1,-3.0489948E-2,2.290981E0,3.38E1,6.6E1,1.7E1,1.749E1,1.1E1,4E0,6.179E1,1.37E1,3.1E1,1.05E2,1.4999E2,8E0,1.3499E3,8.6E1,1.709E1,1.975E3,4.9989E2,2.6E1,3.75E3,1.975E3,6E1,4.719E1,1.9004809E0,1.659E2,2.585E4,9.8E3,-8.500522E-2,-4.9902607E-2,-1.00534506E-1,-1.506648E-1,-4.0603954E-1,-7.612946E-2,-6.9305474E-1,1.4475784E-1,3.980187E-2,4.8420605E-1,-7.310698E-2,1.15682855E-1,-4.9608663E-2,1.21665215E-2,2.1697132E-1,1.1371859E0,-3.9353456E-2,4.1007232E-2,7.457533E-1,3.8478285E-2,-6.0661137E-2,1.8858198E0,1.1023518E-1,-5.6762975E-2,-1.2208455E-2,2.7019253E-1,-2.9716443E-2,1.9785002E-1,-1.0410456E-2,9.378114E-3,-2.6785862E-2,1.637203E-1,8.387067E-3,-3.9817142E-1,9.191676E-2,1.006105E0,2.1533601E-2,6.2129296E-2,-7.821848E-3,2.4293413E-2,9.5983523E-1,1.3550642E-1,-3.7338877E-1,3.813417E-2,5.6024566E-2,1.4391515E-1,1.827948E-2,5.3662837E-2,4.177081E-2,-3.0617857E-1,9.547033E-2,5.0175387E-2,5.1931076E-2,2.039516E-2,6.5968685E-2,5.0523716E-1,4.1604948E-1,1.5201479E-1],"split_indices":[0,2,0,6,2,0,3,2,1,1,0,5,3,0,5,2,1,1,4,3,4,3,6,4,4,2,6,2,2,0,4,0,5,6,0,0,0,0,4,5,1,5,5,0,1,4,4,1,5,1,5,2,3,0,4,3,3,4,2,0,1,3,3,0,0,0,0,0,0,0,0,0,0,0,0,0,0,0,0,0,0,0,0,0,0,0,0,0,0,0,0,0,0,0,0,0,0,0,0,0,0,0,0,0,0,0,0,0,0,0,0,0,0,0,0,0,0,0,0,0,0],"split_type":[0,0,0,0,0,0,0,0,0,0,0,0,0,0,0,0,0,0,0,0,0,0,0,0,0,0,0,0,0,0,0,0,0,0,0,0,0,0,0,0,0,0,0,0,0,0,0,0,0,0,0,0,0,0,0,0,0,0,0,0,0,0,0,0,0,0,0,0,0,0,0,0,0,0,0,0,0,0,0,0,0,0,0,0,0,0,0,0,0,0,0,0,0,0,0,0,0,0,0,0,0,0,0,0,0,0,0,0,0,0,0,0,0,0,0,0,0,0,0,0,0],"sum_hessian":[9.408E4,2.6469E4,6.7611E4,1.2216E4,1.4253E4,5.18E4,1.5811E4,1.2163E4,5.3E1,4.74E2,1.3779E4,2.7158E4,2.4642E4,1.4917E4,8.94E2,2.72E3,9.443E3,5E0,4.8E1,1.07E2,3.67E2,5.418E3,8.361E3,2.5856E4,1.302E3,2.4056E4,5.86E2,8.327E3,6.59E3,8E0,8.86E2,3.55E2,2.365E3,9.436E3,7E0,2E0,3E0,4E0,4.4E1,6.5E1,4.2E1,3.15E2,5.2E1,9E0,5.409E3,5.81E2,7.78E3,2.5637E4,2.19E2,6.84E2,6.18E2,1.3741E4,1.0315E4,3.06E2,2.8E2,4.398E3,3.929E3,7.77E2,5.813E3,2E0,6E0,4.03E2,4.83E2,2.02E2,1.53E2,2.148E3,2.17E2,6E0,9.43E3,5E0,2E0,3E0,1E0,3.8E1,6E0,5.9E1,6E0,3.1E1,1.1E1,1.78E2,1.37E2,6E0,4.6E1,8E0,1E0,4.9E1,5.36E3,5.01E2,8E1,7.752E3,2.8E1,2.0812E4,4.825E3,8.3E1,1.36E2,6.79E2,5E0,6.08E2,1E1,1.0908E4,2.833E3,6.434E3,3.881E3,3E0,3.03E2,4E0,2.76E2,4.244E3,1.54E2,2.65E3,1.279E3,7.69E2,8E0,4.865E3,9.48E2,3E0,3E0,3.91E2,1.2E1,4.8E1,4.35E2],"tree_param":{"num_deleted":"0","num_feature":"7","num_nodes":"121","size_leaf_vector":"1"}},{"base_weights":[5.4921745E-4,-5.5027275E0,2.1550741E0,-8.024088E0,-3.3413014E0,8.176494E-1,6.536416E0,-8.125685E0,1.5009936E1,4.869274E0,-3.6240797E0,-2.9477736E-1,2.0436196E0,6.097831E0,1.3839522E1,-9.963255E0,-7.595384E0,1.5007225E2,-1.8346307E0,1.6235321E1,1.520355E0,-5.399417E0,-2.4731376E0,-5.459127E-1,6.0958896E0,1.872259E0,9.063002E0,4.484971E0,8.13482E0,6.611743E1,1.3293478E1,-1.0393768E1,-6.7796364E0,-7.5618925E0,-4.615371E1,-3.028668E-2,2.2737987E0,2.243167E1,-4.4901166E0,-4.3375993E0,4.7434795E1,-4.3398798E-1,1.3143978E1,3.211684E1,-5.4677653E0,2.680749E0,-2.858318E0,-6.316651E-1,9.465633E0,4.9521313E0,4.0397205E1,2.9608166E0,4.2200375E-1,1.4525704E1,3.0625997E0,5.8543262E0,2.9510584E0,3.7417984E0,8.721272E0,1.8878111E0,4.1019306E0,3.736944E1,1.2290018E1,-9.939459E-2,-1.4269303E-1,-7.633525E-2,-9.6247215E-3,-6.702912E-2,-8.488515E-2,-6.8727916E-1,1.4379278E-1,3.950336E-2,4.81785E-1,-7.2394654E-2,1.14691295E-1,-4.912085E-2,1.2062234E-2,2.148694E-1,1.1267618E0,-3.8962122E-2,4.060013E-2,4.924873E-1,-2.4039177E-2,-6.0121927E-2,1.8763907E0,1.0915488E-1,-5.6195453E-2,-1.208662E-2,2.6752397E-1,-3.382473E-2,7.4476115E-3,-1.0059691E-2,9.567931E-3,8.66286E-3,1.9948173E-1,-2.2644773E-3,9.877302E-2,8.760802E-2,1.5665231E0,2.1318281E-2,6.1508223E-2,-7.743638E-3,2.4050545E-2,1.1829734E-1,4.730075E-1,-3.704017E-1,3.77542E-2,5.5464447E-2,1.4248528E-1,1.8096758E-2,5.3126626E-2,4.1353643E-2,-3.03457E-1,9.451583E-2,4.9674157E-2,5.1541585E-2,2.0242196E-2,2.9245377E0,1.3047543E-1,3.3029038E-1,1.109412E-1],"categories":[],"categories_nodes":[],"categories_segments":[],"categories_sizes":[],"default_left":[0,0,0,0,0,0,0,0,0,0,0,0,0,0,0,0,0,0,0,0,0,0,0,0,0,0,0,0,0,0,0,0,0,0,0,0,0,0,0,0,0,0,0,0,0,0,0,0,0,0,0,0,0,0,0,0,0,0,0,0,0,0,0,0,0,0,0,0,0,0,0,0,0,0,0,0,0,0,0,0,0,0,0,0,0,0,0,0,0,0,0,0,0,0,0,0,0,0,0,0,0,0,0,0,0,0,0,0,0,0,0,0,0,0,0,0,0,0,0,0,0],"id":5,"left_children":[1,3,5,7,9,11,13,15,17,19,21,23,25,27,29,31,33,35,37,39,41,43,45,47,49,51,53,55,57,59,61,63,65,67,69,-1,-1,71,73,75,77,79,81,83,85,87,89,91,93,95,97,99,101,103,105,107,109,111,113,-1,115,117,119,-1,-1,-1,-1,-1,-1,-1,-1,-1,-1,-1,-1,-1,-1,-1,-1,-1,-1,-1,-1,-1,-1,-1,-1,-1,-1,-1,-1,-1,-1,-1,-1,-1,-1,-1,-1,-1,-1,-1,-1,-1,-1,-1,-1,-1,-1,-1,-1,-1,-1,-1,-1,-1,-1,-1,-1,-1,-1],"loss_changes":[1.1155254E6,1.4422762E5,3.9618172E5,2.8711812E4,3.311217E4,7.064691E4,5.0561938E4,1.1777625E4,1.231289E5,1.8055703E4,2.8143469E4,4.3591414E4,2.9624742E4,4.897475E4,2.466975E4,3.6589062E3,1.1846875E4,7.170386E4,3.2582231E3,6.95271E4,8.365395E3,1.4070828E4,1.660771E4,2.244154E4,4.009163E4,3.797722E4,1.9196441E4,1.7475453E4,1.694775E4,6.768908E4,2.097E4,4.0750312E3,1.6169326E3,7.4544375E3,1.1920133E4,0E0,0E0,2.1888574E3,2.0575195E3,2.1612512E2,7.03725E4,4.9325386E3,2.9870094E4,6.042725E4,1.3514156E4,5.452182E4,1.4697512E4,1.5407365E4,1.9994463E4,2.5380098E4,1.1999809E5,3.6327312E4,2.4476139E4,2.656714E4,8.1725283E3,1.12898125E4,1.058368E4,1.0562886E4,1.5892031E4,0E0,4.8704453E0,2.1332888E5,2.0789453E4,0E0,0E0,0E0,0E0,0E0,0E0,0E0,0E0,0E0,0E0,0E0,0E0,0E0,0E0,0E0,0E0,0E0,0E0,0E0,0E0,0E0,0E0,0E0,0E0,0E0,0E0,0E0,0E0,0E0,0E0,0E0,0E0,0E0,0E0,0E0,0E0,0E0,0E0,0E0,0E0,0E0,0E0,0E0,0E0,0E0,0E0,0E0,0E0,0E0,0E0,0E0,0E0,0E0,0E0,0E0,0E0,0E0,0E0],"parents":[2147483647,0,0,1,1,2,2,3,3,4,4,5,5,6,6,7,7,8,8,9,9,10,10,11,11,12,12,13,13,14,14,15,15,16,16,17,17,18,18,19,19,20,20,21,21,22,22,23,23,24,24,25,25,26,26,27,27,28,28,29,29,30,30,31,31,32,32,33,33,34,34,37,37,38,38,39,39,40,40,41,41,42,42,43,43,44,44,45,45,46,46,47,47,48,48,49,49,50,50,51,51,52,52,53,53,54,54,55,55,56,56,57,57,58,58,60,60,61,61,62,62],"right_children":[2,4,6,8,10,12,14,16,18,20,22,24,26,28,30,32,34,36,38,40,42,44,46,48,50,52,54,56,58,60,62,64,66,68,70,-1,-1,72,74,76,78,80,82,84,86,88,90,92,94,96,98,100,102,104,106,108,110,112,114,-1,116,118,120,-1,-1,-1,-1,-1,-1,-1,-1,-1,-1,-1,-1,-1,-1,-1,-1,-1,-1,-1,-1,-1,-1,-1,-1,-1,-1,-1,-1,-1,-1,-1,-1,-1,-1,-1,-1,-1,-1,-1,-1,-1,-1,-1,-1,-1,-1,-1,-1,-1,-1,-1,-1,-1,-1,-1,-1,-1,-1],"split_conditions":[2.4644E2,1.082E1,9.4977E2,5.2E1,1.103E1,4.9641E2,9.05E3,7.78E0,2.44E1,1.99E1,7.873E1,5.1E1,1.335E4,1.73665E3,4E0,1.1613E2,4.88E2,1.99E1,2.1E1,2.55E2,3.5E1,1E2,1.2E1,1E2,4.8762E2,1.823E1,4.4E1,2.138E1,1.946E1,1.73665E3,1.7E1,1.8E1,7.9E1,4E2,7.873E1,-3.028668E-2,2.2737987E0,3.38E1,6.6E1,1.7E1,1.749E1,1.1E1,3.8E1,6.179E1,1.37E1,3.1E1,8.05E3,1.4999E2,1.029E2,4.4E1,4.7E1,1.709E1,1.975E3,4.2E1,2.6E1,3.75E3,1.975E3,6E1,4.719E1,1.8878111E0,1.659E2,9.8E3,9.8593E2,-9.939459E-2,-1.4269303E-1,-7.633525E-2,-9.6247215E-3,-6.702912E-2,-8.488515E-2,-6.8727916E-1,1.4379278E-1,3.950336E-2,4.81785E-1,-7.2394654E-2,1.14691295E-1,-4.912085E-2,1.2062234E-2,2.148694E-1,1.1267618E0,-3.8962122E-2,4.060013E-2,4.924873E-1,-2.4039177E-2,-6.0121927E-2,1.8763907E0,1.0915488E-1,-5.6195453E-2,-1.208662E-2,2.6752397E-1,-3.382473E-2,7.4476115E-3,-1.0059691E-2,9.567931E-3,8.66286E-3,1.9948173E-1,-2.2644773E-3,9.877302E-2,8.760802E-2,1.5665231E0,2.1318281E-2,6.1508223E-2,-7.743638E-3,2.4050545E-2,1.1829734E-1,4.730075E-1,-3.704017E-1,3.77542E-2,5.5464447E-2,1.4248528E-1,1.8096758E-2,5.3126626E-2,4.1353643E-2,-3.03457E-1,9.451583E-2,4.9674157E-2,5.1541585E-2,2.0242196E-2,2.9245377E0,1.3047543E-1,3.3029038E-1,1.109412E-1],"split_indices":[0,2,0,6,2,0,3,2,1,1,0,5,3,0,5,0,1,1,4,3,4,3,6,4,0,2,6,2,2,0,6,5,1,3,0,0,0,0,4,5,1,5,4,0,1,4,3,1,1,4,6,2,3,6,4,3,3,4,2,0,1,3,0,0,0,0,0,0,0,0,0,0,0,0,0,0,0,0,0,0,0,0,0,0,0,0,0,0,0,0,0,0,0,0,0,0,0,0,0,0,0,0,0,0,0,0,0,0,0,0,0,0,0,0,0,0,0,0,0,0,0],"split_type":[0,0,0,0,0,0,0,0,0,0,0,0,0,0,0,0,0,0,0,0,0,0,0,0,0,0,0,0,0,0,0,0,0,0,0,0,0,0,0,0,0,0,0,0,0,0,0,0,0,0,0,0,0,0,0,0,0,0,0,0,0,0,0,0,0,0,0,0,0,0,0,0,0,0,0,0,0,0,0,0,0,0,0,0,0,0,0,0,0,0,0,0,0,0,0,0,0,0,0,0,0,0,0,0,0,0,0,0,0,0,0,0,0,0,0,0,0,0,0,0,0],"sum_hessian":[9.408E4,2.6469E4,6.7611E4,1.2216E4,1.4253E4,5.18E4,1.5811E4,1.2163E4,5.3E1,4.74E2,1.3779E4,2.7158E4,2.4642E4,1.4917E4,8.94E2,2.72E3,9.443E3,5E0,4.8E1,1.07E2,3.67E2,5.418E3,8.361E3,2.6132E4,1.026E3,2.4056E4,5.86E2,8.327E3,6.59E3,8E0,8.86E2,2.394E3,3.26E2,9.436E3,7E0,2E0,3E0,4E0,4.4E1,6.5E1,4.2E1,3.15E2,5.2E1,9E0,5.409E3,5.81E2,7.78E3,2.5911E4,2.21E2,9.94E2,3.2E1,1.3741E4,1.0315E4,3.06E2,2.8E2,4.398E3,3.929E3,7.77E2,5.813E3,2E0,6E0,3.4E1,8.52E2,2.146E3,2.48E2,2.84E2,4.2E1,4.901E3,4.535E3,5E0,2E0,3E0,1E0,3.8E1,6E0,5.9E1,6E0,3.1E1,1.1E1,1.78E2,1.37E2,1.5E1,3.7E1,8E0,1E0,4.9E1,5.36E3,5.01E2,8E1,6.792E3,9.88E2,2.097E4,4.941E3,1.22E2,9.9E1,4.85E2,5.09E2,2.6E1,6E0,1.0908E4,2.833E3,6.434E3,3.881E3,2.84E2,2.2E1,4E0,2.76E2,4.244E3,1.54E2,2.65E3,1.279E3,7.69E2,8E0,4.865E3,9.48E2,3E0,3E0,2E0,3.2E1,4.5E1,8.07E2],"tree_param":{"num_deleted":"0","num_feature":"7","num_nodes":"121","size_leaf_vector":"1"}},{"base_weights":[6.879445E-4,-5.4474864E0,2.1336403E0,-7.9437013E0,-3.3076167E0,8.095174E-1,6.4714065E0,-8.044512E0,1.4911819E1,4.824318E0,-3.5876865E0,-2.9175788E-1,2.0231977E0,6.036863E0,1.3707223E1,-9.863743E0,-7.519504E0,1.4894543E2,-1.804783E0,1.6085047E1,1.5064292E0,-5.345078E0,-2.4483786E0,-5.7351166E-1,5.299647E0,1.8535404E0,8.972813E0,4.4401536E0,8.053454E0,6.567399E1,1.3164486E1,-6.841455E0,-1.03143215E1,-7.4862895E0,-4.5760113E1,-3.0084768E-2,2.256745E0,2.231161E1,-4.444276E0,-4.2947845E0,4.6991646E1,-4.2964247E-1,1.3021377E1,3.19773E1,-5.413078E0,2.6543806E0,-2.829738E0,-6.555429E-1,8.988716E0,4.740806E-1,1.063117E1,2.9312143E0,4.1778532E-1,1.4382374E1,3.03079E0,5.795828E0,2.9215658E0,3.7040439E0,8.634085E0,1.8752258E0,4.0711665E0,7.8294797E0,1.7590473E1,-8.3089255E-2,-4.862636E-2,-9.856239E-2,-1.4782695E-1,-4.0193367E-1,-7.461219E-2,-6.815519E-1,1.4283417E-1,3.9207082E-2,4.7937605E-1,-7.168928E-2,1.1370822E-1,-4.8637826E-2,1.1958844E-2,2.1278785E-1,1.116433E0,4.35132E-2,-3.66527E-2,7.3735356E-1,3.7018184E-2,-5.9587512E-2,1.8670088E0,1.08085155E-1,-5.5633605E-2,-1.1965992E-2,2.6488176E-1,-2.9133014E-2,1.9608131E-1,-1.0205769E-2,9.188686E-3,-2.6902108E-2,1.6083905E-1,8.2594985E-3,-3.9483446E-1,9.013825E-2,9.920679E-1,2.1105114E-2,6.0893357E-2,-7.666212E-3,2.38101E-2,9.517493E-1,1.3272002E-1,-3.6743847E-1,3.737802E-2,5.4909933E-2,1.4106962E-1,1.7915856E-2,5.2595776E-2,4.0940646E-2,-3.0075958E-1,9.3570866E-2,4.917794E-2,5.1155027E-2,2.0090383E-2,6.413048E-2,4.9938065E-1,4.09694E-1,1.492268E-1],"categories":[],"categories_nodes":[],"categories_segments":[],"categories_sizes":[],"default_left":[0,0,0,0,0,0,0,0,0,0,0,0,0,0,0,0,0,0,0,0,0,0,0,0,0,0,0,0,0,0,0,0,0,0,0,0,0,0,0,0,0,0,0,0,0,0,0,0,0,0,0,0,0,0,0,0,0,0,0,0,0,0,0,0,0,0,0,0,0,0,0,0,0,0,0,0,0,0,0,0,0,0,0,0,0,0,0,0,0,0,0,0,0,0,0,0,0,0,0,0,0,0,0,0,0,0,0,0,0,0,0,0,0,0,0,0,0,0,0,0,0],"id":6,"left_children":[1,3,5,7,9,11,13,15,17,19,21,23,25,27,29,31,33,35,37,39,41,43,45,47,49,51,53,55,57,59,61,63,65,67,69,-1,-1,71,73,75,77,79,81,83,85,87,89,91,93,95,97,99,101,103,105,107,109,111,113,-1,115,117,119,-1,-1,-1,-1,-1,-1,-1,-1,-1,-1,-1,-1,-1,-1,-1,-1,-1,-1,-1,-1,-1,-1,-1,-1,-1,-1,-1,-1,-1,-1,-1,-1,-1,-1,-1,-1,-1,-1,-1,-1,-1,-1,-1,-1,-1,-1,-1,-1,-1,-1,-1,-1,-1,-1,-1,-1,-1,-1],"loss_changes":[1.0932985E6,1.4136519E5,3.8834025E5,2.826875E4,3.2480922E4,6.92376E4,4.9634562E4,1.15438125E4,1.2126049E5,1.7722645E4,2.7577375E4,4.2789316E4,2.9038781E4,4.7998875E4,2.4378297E4,3.6348438E3,1.16525625E4,7.063466E4,3.2182559E3,6.822792E4,8.209699E3,1.3926047E4,1.6279836E4,2.0288154E4,3.3518047E4,3.7221594E4,1.8824781E4,1.7128031E4,1.6612969E4,6.679252E4,2.0806688E4,9.933711E2,4.6972344E3,7.4381875E3,1.1730928E4,0E0,0E0,2.1684766E3,2.0205951E3,2.1201257E2,6.9106664E4,4.904283E3,2.9715902E4,5.9808523E4,1.3248797E4,5.344968E4,1.4646414E4,1.4735452E4,1.8273393E4,9.663592E3,8.778205E4,3.5604742E4,2.3989172E4,2.6277703E4,8.0393867E3,1.1067469E4,1.037327E4,1.0373208E4,1.55755E4,0E0,4.7976456E0,2.3775889E4,2.9575781E4,0E0,0E0,0E0,0E0,0E0,0E0,0E0,0E0,0E0,0E0,0E0,0E0,0E0,0E0,0E0,0E0,0E0,0E0,0E0,0E0,0E0,0E0,0E0,0E0,0E0,0E0,0E0,0E0,0E0,0E0,0E0,0E0,0E0,0E0,0E0,0E0,0E0,0E0,0E0,0E0,0E0,0E0,0E0,0E0,0E0,0E0,0E0,0E0,0E0,0E0,0E0,0E0,0E0,0E0,0E0,0E0,0E0,0E0],"parents":[2147483647,0,0,1,1,2,2,3,3,4,4,5,5,6,6,7,7,8,8,9,9,10,10,11,11,12,12,13,13,14,14,15,15,16,16,17,17,18,18,19,19,20,20,21,21,22,22,23,23,24,24,25,25,26,26,27,27,28,28,29,29,30,30,31,31,32,32,33,33,34,34,37,37,38,38,39,39,40,40,41,41,42,42,43,43,44,44,45,45,46,46,47,47,48,48,49,49,50,50,51,51,52,52,53,53,54,54,55,55,56,56,57,57,58,58,60,60,61,61,62,62],"right_children":[2,4,6,8,10,12,14,16,18,20,22,24,26,28,30,32,34,36,38,40,42,44,46,48,50,52,54,56,58,60,62,64,66,68,70,-1,-1,72,74,76,78,80,82,84,86,88,90,92,94,96,98,100,102,104,106,108,110,112,114,-1,116,118,120,-1,-1,-1,-1,-1,-1,-1,-1,-1,-1,-1,-1,-1,-1,-1,-1,-1,-1,-1,-1,-1,-1,-1,-1,-1,-1,-1,-1,-1,-1,-1,-1,-1,-1,-1,-1,-1,-1,-1,-1,-1,-1,-1,-1,-1,-1,-1,-1,-1,-1,-1,-1,-1,-1,-1,-1,-1,-1],"split_conditions":[2.4644E2,1.082E1,9.4977E2,5.2E1,1.103E1,4.9641E2,9.05E3,7.78E0,2.44E1,1.99E1,7.873E1,4.7E1,1.335E4,1.73665E3,4E0,7.39E0,4.88E2,1.99E1,2.1E1,2.55E2,3.5E1,1E2,1.2E1,1E2,4.4E1,1.823E1,4.4E1,2.138E1,1.946E1,1.73665E3,4.8E1,7.224E1,1.8E1,1E1,7.873E1,-3.0084768E-2,2.256745E0,3.38E1,6.6E1,1.7E1,1.749E1,3.299E1,4E0,6.179E1,1.37E1,3.1E1,1.05E2,1.4999E2,8E0,1.3499E3,8.6E1,1.709E1,1.975E3,4.9989E2,2.6E1,3.75E3,1.975E3,6E1,4.719E1,1.8752258E0,1.659E2,2.585E4,9.8E3,-8.3089255E-2,-4.862636E-2,-9.856239E-2,-1.4782695E-1,-4.0193367E-1,-7.461219E-2,-6.815519E-1,1.4283417E-1,3.9207082E-2,4.7937605E-1,-7.168928E-2,1.1370822E-1,-4.8637826E-2,1.1958844E-2,2.1278785E-1,1.116433E0,4.35132E-2,-3.66527E-2,7.3735356E-1,3.7018184E-2,-5.9587512E-2,1.8670088E0,1.08085155E-1,-5.5633605E-2,-1.1965992E-2,2.6488176E-1,-2.9133014E-2,1.9608131E-1,-1.0205769E-2,9.188686E-3,-2.6902108E-2,1.6083905E-1,8.2594985E-3,-3.9483446E-1,9.013825E-2,9.920679E-1,2.1105114E-2,6.0893357E-2,-7.666212E-3,2.38101E-2,9.517493E-1,1.3272002E-1,-3.6743847E-1,3.737802E-2,5.4909933E-2,1.4106962E-1,1.7915856E-2,5.2595776E-2,4.0940646E-2,-3.0075958E-1,9.3570866E-2,4.917794E-2,5.1155027E-2,2.0090383E-2,6.413048E-2,4.9938065E-1,4.09694E-1,1.492268E-1],"split_indices":[0,2,0,6,2,0,3,2,1,1,0,5,3,0,5,2,1,1,4,3,4,3,6,4,4,2,6,2,2,0,4,0,5,6,0,0,0,0,4,5,1,1,5,0,1,4,4,1,5,1,5,2,3,0,4,3,3,4,2,0,1,3,3,0,0,0,0,0,0,0,0,0,0,0,0,0,0,0,0,0,0,0,0,0,0,0,0,0,0,0,0,0,0,0,0,0,0,0,0,0,0,0,0,0,0,0,0,0,0,0,0,0,0,0,0,0,0,0,0,0,0],"split_type":[0,0,0,0,0,0,0,0,0,0,0,0,0,0,0,0,0,0,0,0,0,0,0,0,0,0,0,0,0,0,0,0,0,0,0,0,0,0,0,0,0,0,0,0,0,0,0,0,0,0,0,0,0,0,0,0,0,0,0,0,0,0,0,0,0,0,0,0,0,0,0,0,0,0,0,0,0,0,0,0,0,0,0,0,0,0,0,0,0,0,0,0,0,0,0,0,0,0,0,0,0,0,0,0,0,0,0,0,0,0,0,0,0,0,0,0,0,0,0,0,0],"sum_hessian":[9.408E4,2.6469E4,6.7611E4,1.2216E4,1.4253E4,5.18E4,1.5811E4,1.2163E4,5.3E1,4.74E2,1.3779E4,2.7158E4,2.4642E4,1.4917E4,8.94E2,2.72E3,9.443E3,5E0,4.8E1,1.07E2,3.67E2,5.418E3,8.361E3,2.5856E4,1.302E3,2.4056E4,5.86E2,8.327E3,6.59E3,8E0,8.86E2,3.55E2,2.365E3,9.436E3,7E0,2E0,3E0,4E0,4.4E1,6.5E1,4.2E1,3.15E2,5.2E1,9E0,5.409E3,5.81E2,7.78E3,2.5637E4,2.19E2,6.84E2,6.18E2,1.3741E4,1.0315E4,3.06E2,2.8E2,4.398E3,3.929E3,7.77E2,5.813E3,2E0,6E0,4.03E2,4.83E2,2.02E2,1.53E2,2.148E3,2.17E2,6E0,9.43E3,5E0,2E0,3E0,1E0,3.8E1,6E0,5.9E1,6E0,3.1E1,1.1E1,1.27E2,1.88E2,6E0,4.6E1,8E0,1E0,4.9E1,5.36E3,5.01E2,8E1,7.752E3,2.8E1,2.0812E4,4.825E3,8.3E1,1.36E2,6.79E2,5E0,6.08E2,1E1,1.0908E4,2.833E3,6.434E3,3.881E3,3E0,3.03E2,4E0,2.76E2,4.244E3,1.54E2,2.65E3,1.279E3,7.69E2,8E0,4.865E3,9.48E2,3E0,3E0,3.91E2,1.2E1,4.8E1,4.35E2],"tree_param":{"num_deleted":"0","num_feature":"7","num_nodes":"121","size_leaf_vector":"1"}},{"base_weights":[7.944388E-4,-5.3927946E0,2.1123767E0,-7.86415E0,-3.2742352E0,8.0145496E-1,6.406896E0,-7.9641805E0,1.4814318E1,4.780441E0,-3.5516443E0,-2.8880942E-1,2.0030005E0,5.9765043E0,1.357358E1,-9.7652445E0,-7.444416E0,1.4782709E2,-1.7752941E0,1.5936165E1,1.4934877E0,-5.291284E0,-2.4238448E0,-5.351603E-1,5.980106E0,1.8350093E0,8.884369E0,4.3957844E0,7.9729023E0,6.523352E1,1.3034105E1,-6.773411E0,-1.0211283E1,-7.4114766E0,-4.536985E1,-2.9884204E-2,2.2398195E0,2.2192211E1,-4.398899E0,-4.252393E0,4.6552647E1,-4.253245E-1,1.2905774E1,3.183827E1,-5.3589377E0,2.628271E0,-2.8014193E0,-6.1925316E-1,9.282628E0,4.8491564E0,3.989873E1,2.9019086E0,4.1360915E-1,1.4242083E1,2.9993072E0,5.737914E0,2.892368E0,3.66667E0,8.547769E0,1.8627241E0,4.0406327E0,3.695479E1,1.203732E1,-8.226246E-2,-4.814326E-2,-9.757723E-2,-1.4635547E-1,-3.984885E-1,-7.3866144E-2,-6.758723E-1,1.4188194E-1,3.8913026E-2,4.769792E-1,-7.099076E-2,1.1273358E-1,-4.815956E-2,1.1856337E-2,2.1072648E-1,1.1061991E0,3.060848E-2,-4.829805E-2,4.8621005E-1,-2.4718443E-2,-5.9057843E-2,1.8576738E0,1.0702593E-1,-5.5077374E-2,-1.1846574E-2,2.6226565E-1,-3.320022E-2,7.634645E-3,-9.859764E-3,9.370346E-3,2.9085798E-2,2.3081867E-1,-2.282841E-3,9.67815E-2,8.6138524E-2,1.5486915E0,2.0894086E-2,6.028464E-2,-7.589558E-3,2.3572057E-2,1.1570975E-1,4.6721363E-1,-3.6449897E-1,3.700559E-2,5.4360967E-2,1.3966802E-1,1.7736766E-2,5.2070227E-2,4.0531777E-2,-2.9808617E-1,9.2635356E-2,4.868668E-2,5.0771363E-2,1.9939706E-2,2.9023094E0,1.280984E-1,3.256887E-1,1.0853547E-1],"categories":[],"categories_nodes":[],"categories_segments":[],"categories_sizes":[],"default_left":[0,0,0,0,0,0,0,0,0,0,0,0,0,0,0,0,0,0,0,0,0,0,0,0,0,0,0,0,0,0,0,0,0,0,0,0,0,0,0,0,0,0,0,0,0,0,0,0,0,0,0,0,0,0,0,0,0,0,0,0,0,0,0,0,0,0,0,0,0,0,0,0,0,0,0,0,0,0,0,0,0,0,0,0,0,0,0,0,0,0,0,0,0,0,0,0,0,0,0,0,0,0,0,0,0,0,0,0,0,0,0,0,0,0,0,0,0,0,0,0,0],"id":7,"left_children":[1,3,5,7,9,11,13,15,17,19,21,23,25,27,29,31,33,35,37,39,41,43,45,47,49,51,53,55,57,59,61,63,65,67,69,-1,-1,71,73,75,77,79,81,83,85,87,89,91,93,95,97,99,101,103,105,107,109,111,113,-1,115,117,119,-1,-1,-1,-1,-1,-1,-1,-1,-1,-1,-1,-1,-1,-1,-1,-1,-1,-1,-1,-1,-1,-1,-1,-1,-1,-1,-1,-1,-1,-1,-1,-1,-1,-1,-1,-1,-1,-1,-1,-1,-1,-1,-1,-1,-1,-1,-1,-1,-1,-1,-1,-1,-1,-1,-1,-1,-1,-1],"loss_changes":[1.0715005E6,1.3856362E5,3.806355E5,2.783275E4,3.1866688E4,6.7860016E4,4.8690688E4,1.13143125E4,1.1942048E5,1.7393662E4,2.7023062E4,4.1946277E4,2.8471258E4,4.7042375E4,2.409264E4,3.5619688E3,1.14615E4,6.9581375E4,3.1788037E3,6.695304E4,8.063966E3,1.3782797E4,1.5958297E4,2.1581305E4,3.92025E4,3.6481023E4,1.8465668E4,1.6787484E4,1.6284719E4,6.590782E4,2.070461E4,9.736553E2,4.6049688E3,7.3161875E3,1.154473E4,0E0,0E0,2.1482812E3,1.9843345E3,2.0797827E2,6.78636E4,4.866894E3,2.9228588E4,5.919619E4,1.2988625E4,5.2398617E4,1.4387734E4,1.47896E4,1.9459322E4,2.4398547E4,1.1736157E5,3.4896555E4,2.3511887E4,2.6093375E4,7.908419E3,1.0849531E4,1.0167043E4,1.01869375E4,1.5265375E4,0E0,4.725952E0,2.1031906E5,2.0378422E4,0E0,0E0,0E0,0E0,0E0,0E0,0E0,0E0,0E0,0E0,0E0,0E0,0E0,0E0,0E0,0E0,0E0,0E0,0E0,0E0,0E0,0E0,0E0,0E0,0E0,0E0,0E0,0E0,0E0,0E0,0E0,0E0,0E0,0E0,0E0,0E0,0E0,0E0,0E0,0E0,0E0,0E0,0E0,0E0,0E0,0E0,0E0,0E0,0E0,0E0,0E0,0E0,0E0,0E0,0E0,0E0,0E0,0E0],"parents":[2147483647,0,0,1,1,2,2,3,3,4,4,5,5,6,6,7,7,8,8,9,9,10,10,11,11,12,12,13,13,14,14,15,15,16,16,17,17,18,18,19,19,20,20,21,21,22,22,23,23,24,24,25,25,26,26,27,27,28,28,29,29,30,30,31,31,32,32,33,33,34,34,37,37,38,38,39,39,40,40,41,41,42,42,43,43,44,44,45,45,46,46,47,47,48,48,49,49,50,50,51,51,52,52,53,53,54,54,55,55,56,56,57,57,58,58,60,60,61,61,62,62],"right_children":[2,4,6,8,10,12,14,16,18,20,22,24,26,28,30,32,34,36,38,40,42,44,46,48,50,52,54,56,58,60,62,64,66,68,70,-1,-1,72,74,76,78,80,82,84,86,88,90,92,94,96,98,100,102,104,106,108,110,112,114,-1,116,118,120,-1,-1,-1,-1,-1,-1,-1,-1,-1,-1,-1,-1,-1,-1,-1,-1,-1,-1,-1,-1,-1,-1,-1,-1,-1,-1,-1,-1,-1,-1,-1,-1,-1,-1,-1,-1,-1,-1,-1,-1,-1,-1,-1,-1,-1,-1,-1,-1,-1,-1,-1,-1,-1,-1,-1,-1,-1,-1],"split_conditions":[2.4644E2,1.082E1,9.4977E2,5.2E1,1.103E1,4.9641E2,9.05E3,7.78E0,2.44E1,1.99E1,7.873E1,5.1E1,1.335E4,1.73665E3,4E0,7.39E0,4.88E2,1.99E1,2.1E1,2.55E2,3.5E1,1E2,1.2E1,1E2,4.8762E2,1.823E1,4.4E1,2.138E1,1.946E1,1.73665E3,1.7E1,7.224E1,1.8E1,1E1,7.873E1,-2.9884204E-2,2.2398195E0,3.38E1,6.6E1,1.7E1,1.749E1,1.7E1,3.8E1,6.179E1,1.37E1,3.1E1,8.05E3,1.4999E2,2.779E1,4.4E1,4.7E1,1.709E1,1.975E3,4.2E1,2.6E1,3.75E3,1.975E3,6E1,4.719E1,1.8627241E0,1.659E2,9.8E3,9.8593E2,-8.226246E-2,-4.814326E-2,-9.757723E-2,-1.4635547E-1,-3.984885E-1,-7.3866144E-2,-6.758723E-1,1.4188194E-1,3.8913026E-2,4.769792E-1,-7.099076E-2,1.1273358E-1,-4.815956E-2,1.1856337E-2,2.1072648E-1,1.1061991E0,3.060848E-2,-4.829805E-2,4.8621005E-1,-2.4718443E-2,-5.9057843E-2,1.8576738E0,1.0702593E-1,-5.5077374E-2,-1.1846574E-2,2.6226565E-1,-3.320022E-2,7.634645E-3,-9.859764E-3,9.370346E-3,2.9085798E-2,2.3081867E-1,-2.282841E-3,9.67815E-2,8.6138524E-2,1.5486915E0,2.0894086E-2,6.028464E-2,-7.589558E-3,2.3572057E-2,1.1570975E-1,4.6721363E-1,-3.6449897E-1,3.700559E-2,5.4360967E-2,1.3966802E-1,1.7736766E-2,5.2070227E-2,4.0531777E-2,-2.9808617E-1,9.2635356E-2,4.868668E-2,5.0771363E-2,1.9939706E-2,2.9023094E0,1.280984E-1,3.256887E-1,1.0853547E-1],"split_indices":[0,2,0,6,2,0,3,2,1,1,0,5,3,0,5,2,1,1,4,3,4,3,6,4,0,2,6,2,2,0,6,0,5,6,0,0,0,0,4,5,1,6,4,0,1,4,3,1,2,4,6,2,3,6,4,3,3,4,2,0,1,3,0,0,0,0,0,0,0,0,0,0,0,0,0,0,0,0,0,0,0,0,0,0,0,0,0,0,0,0,0,0,0,0,0,0,0,0,0,0,0,0,0,0,0,0,0,0,0,0,0,0,0,0,0,0,0,0,0,0,0],"split_type":[0,0,0,0,0,0,0,0,0,0,0,0,0,0,0,0,0,0,0,0,0,0,0,0,0,0,0,0,0,0,0,0,0,0,0,0,0,0,0,0,0,0,0,0,0,0,0,0,0,0,0,0,0,0,0,0,0,0,0,0,0,0,0,0,0,0,0,0,0,0,0,0,0,0,0,0,0,0,0,0,0,0,0,0,0,0,0,0,0,0,0,0,0,0,0,0,0,0,0,0,0,0,0,0,0,0,0,0,0,0,0,0,0,0,0,0,0,0,0,0,0],"sum_hessian":[9.408E4,2.6469E4,6.7611E4,1.2216E4,1.4253E4,5.18E4,1.5811E4,1.2163E4,5.3E1,4.74E2,1.3779E4,2.7158E4,2.4642E4,1.4917E4,8.94E2,2.72E3,9.443E3,5E0,4.8E1,1.07E2,3.67E2,5.418E3,8.361E3,2.6132E4,1.026E3,2.4056E4,5.86E2,8.327E3,6.59E3,8E0,8.86E2,3.55E2,2.365E3,9.436E3,7E0,2E0,3E0,4E0,4.4E1,6.5E1,4.2E1,3.15E2,5.2E1,9E0,5.409E3,5.81E2,7.78E3,2.5911E4,2.21E2,9.94E2,3.2E1,1.3741E4,1.0315E4,3.06E2,2.8E2,4.398E3,3.929E3,7.77E2,5.813E3,2E0,6E0,3.4E1,8.52E2,2.02E2,1.53E2,2.148E3,2.17E2,6E0,9.43E3,5E0,2E0,3E0,1E0,3.8E1,6E0,5.9E1,6E0,3.1E1,1.1E1,1.76E2,1.39E2,1.5E1,3.7E1,8E0,1E0,4.9E1,5.36E3,5.01E2,8E1,6.792E3,9.88E2,2.097E4,4.941E3,1.52E2,6.9E1,4.85E2,5.09E2,2.6E1,6E0,1.0908E4,2.833E3,6.434E3,3.881E3,2.84E2,2.2E1,4E0,2.76E2,4.244E3,1.54E2,2.65E3,1.279E3,7.69E2,8E0,4.865E3,9.48E2,3E0,3E0,2E0,3.2E1,4.5E1,8.07E2],"tree_param":{"num_deleted":"0","num_feature":"7","num_nodes":"121","size_leaf_vector":"1"}},{"base_weights":[9.2545507E-4,-5.3386707E0,2.0913696E0,-7.785395E0,-3.2412262E0,7.934857E-1,6.343178E0,-7.8846526E0,1.4717424E1,4.7362666E0,-3.5159771E0,-2.8584796E-1,1.9829849E0,5.916749E0,1.3443874E1,-9.667729E0,-7.3700786E0,1.4671713E2,-1.746161E0,1.578866E1,1.4797589E0,-5.2380295E0,-2.3995795E0,-5.623525E-1,5.201384E0,1.8166633E0,8.79596E0,4.351858E0,7.8931556E0,6.479601E1,1.290767E1,-1.0090812E1,-6.539444E0,-7.3374124E0,-4.4982903E1,-2.9684974E-2,2.2230208E0,2.2073467E1,-4.353983E0,-4.2104187E0,4.6117744E1,-4.2112714E-1,1.2785423E1,3.1699747E1,-5.3053384E0,2.6024187E0,-2.7734084E0,-6.427467E-1,8.809047E0,4.6452695E-1,1.0434899E1,2.8728955E0,4.0947452E-1,1.4101561E1,2.968149E0,5.6805787E0,2.8634622E0,3.629672E0,8.462316E0,1.850306E0,4.010328E0,3.667182E1,1.1917456E1,-9.648311E-2,-1.3865736E-1,-7.381611E-2,-8.055554E-3,-6.4869165E-2,-8.254914E-2,-6.7024E-1,1.4093605E-1,3.862118E-2,4.745943E-1,-7.029906E-2,1.1176729E-1,-4.768599E-2,1.1754714E-2,2.0868506E-1,1.096059E0,-3.8492974E-2,4.028609E-2,7.290555E-1,3.5593312E-2,-5.8532886E-2,1.8483852E0,1.0597707E-1,-5.4526705E-2,-1.17283445E-2,2.5967535E-1,-2.8561117E-2,1.9432561E-1,3.0283306E-2,-7.948184E-3,-2.7211875E-2,1.5814379E-1,8.13406E-3,-3.9152515E-1,8.839346E-2,9.7821915E-1,2.0685164E-2,5.968201E-2,-7.5136772E-3,2.3336401E-2,9.4374335E-1,1.2998953E-1,-3.6158296E-1,3.663687E-2,5.381748E-2,1.3828035E-1,1.7559469E-2,5.154993E-2,4.012698E-2,-2.954365E-1,9.170919E-2,4.820032E-2,5.0390575E-2,1.979016E-2,2.8829608E0,1.2685622E-1,3.2250258E-1,1.07451454E-1],"categories":[],"categories_nodes":[],"categories_segments":[],"categories_sizes":[],"default_left":[0,0,0,0,0,0,0,0,0,0,0,0,0,0,0,0,0,0,0,0,0,0,0,0,0,0,0,0,0,0,0,0,0,0,0,0,0,0,0,0,0,0,0,0,0,0,0,0,0,0,0,0,0,0,0,0,0,0,0,0,0,0,0,0,0,0,0,0,0,0,0,0,0,0,0,0,0,0,0,0,0,0,0,0,0,0,0,0,0,0,0,0,0,0,0,0,0,0,0,0,0,0,0,0,0,0,0,0,0,0,0,0,0,0,0,0,0,0,0,0,0],"id":8,"left_children":[1,3,5,7,9,11,13,15,17,19,21,23,25,27,29,31,33,35,37,39,41,43,45,47,49,51,53,55,57,59,61,63,65,67,69,-1,-1,71,73,75,77,79,81,83,85,87,89,91,93,95,97,99,101,103,105,107,109,111,113,-1,115,117,119,-1,-1,-1,-1,-1,-1,-1,-1,-1,-1,-1,-1,-1,-1,-1,-1,-1,-1,-1,-1,-1,-1,-1,-1,-1,-1,-1,-1,-1,-1,-1,-1,-1,-1,-1,-1,-1,-1,-1,-1,-1,-1,-1,-1,-1,-1,-1,-1,-1,-1,-1,-1,-1,-1,-1,-1,-1,-1],"loss_changes":[1.0501551E6,1.3581538E5,3.7310188E5,2.7403562E4,3.1258922E4,6.6506125E4,4.7798312E4,1.10895625E4,1.17608375E5,1.7072934E4,2.6479406E4,4.120977E4,2.7908133E4,4.6104938E4,2.3807672E4,3.5353125E3,1.12735625E4,6.854379E4,3.1398574E3,6.5701984E4,7.913991E3,1.36410625E4,1.5643258E4,1.9486477E4,3.2297066E4,3.575517E4,1.8108207E4,1.6453719E4,1.59630625E4,6.503484E4,2.04355E4,3.8668594E3,1.5731016E3,7.3104375E3,1.1361502E4,0E0,0E0,2.1282693E3,1.9487258E3,2.04021E2,6.6642875E4,4.835915E3,2.9138219E4,5.8590176E4,1.27335625E4,5.136823E4,1.4345383E4,1.4315268E4,1.7813125E4,9.499612E3,8.54429E4,3.420246E4,2.3044115E4,2.5945605E4,7.77959E3,1.0635859E4,9.964916E3,1.0004018E4,1.4961344E4,0E0,4.655319E0,2.0758562E5,1.9985875E4,0E0,0E0,0E0,0E0,0E0,0E0,0E0,0E0,0E0,0E0,0E0,0E0,0E0,0E0,0E0,0E0,0E0,0E0,0E0,0E0,0E0,0E0,0E0,0E0,0E0,0E0,0E0,0E0,0E0,0E0,0E0,0E0,0E0,0E0,0E0,0E0,0E0,0E0,0E0,0E0,0E0,0E0,0E0,0E0,0E0,0E0,0E0,0E0,0E0,0E0,0E0,0E0,0E0,0E0,0E0,0E0,0E0,0E0],"parents":[2147483647,0,0,1,1,2,2,3,3,4,4,5,5,6,6,7,7,8,8,9,9,10,10,11,11,12,12,13,13,14,14,15,15,16,16,17,17,18,18,19,19,20,20,21,21,22,22,23,23,24,24,25,25,26,26,27,27,28,28,29,29,30,30,31,31,32,32,33,33,34,34,37,37,38,38,39,39,40,40,41,41,42,42,43,43,44,44,45,45,46,46,47,47,48,48,49,49,50,50,51,51,52,52,53,53,54,54,55,55,56,56,57,57,58,58,60,60,61,61,62,62],"right_children":[2,4,6,8,10,12,14,16,18,20,22,24,26,28,30,32,34,36,38,40,42,44,46,48,50,52,54,56,58,60,62,64,66,68,70,-1,-1,72,74,76,78,80,82,84,86,88,90,92,94,96,98,100,102,104,106,108,110,112,114,-1,116,118,120,-1,-1,-1,-1,-1,-1,-1,-1,-1,-1,-1,-1,-1,-1,-1,-1,-1,-1,-1,-1,-1,-1,-1,-1,-1,-1,-1,-1,-1,-1,-1,-1,-1,-1,-1,-1,-1,-1,-1,-1,-1,-1,-1,-1,-1,-1,-1,-1,-1,-1,-1,-1,-1,-1,-1,-1,-1,-1],"split_conditions":[2.4644E2,1.082E1,9.4977E2,5.2E1,1.103E1,4.9641E2,9.05E3,7.78E0,2.44E1,1.99E1,7.873E1,4.7E1,1.335E4,1.73665E3,4E0,1.1613E2,4.88E2,1.99E1,2.1E1,2.55E2,3.5E1,1E2,1.2E1,1E2,4.4E1,1.823E1,4.4E1,2.138E1,1.946E1,1.73665E3,1.7E1,1.8E1,7.9E1,4E2,7.873E1,-2.9684974E-2,2.2230208E0,3.38E1,6.6E1,1.7E1,1.749E1,1.1E1,4E0,6.179E1,1.37E1,3.1E1,1.05E2,2.6629E2,8E0,1.3499E3,8.6E1,1.709E1,1.975E3,4.9989E2,2.6E1,3.75E3,1.975E3,6E1,4.719E1,1.850306E0,1.659E2,9.8E3,9.8593E2,-9.648311E-2,-1.3865736E-1,-7.381611E-2,-8.055554E-3,-6.4869165E-2,-8.254914E-2,-6.7024E-1,1.4093605E-1,3.862118E-2,4.745943E-1,-7.029906E-2,1.1176729E-1,-4.768599E-2,1.1754714E-2,2.0868506E-1,1.096059E0,-3.8492974E-2,4.028609E-2,7.290555E-1,3.5593312E-2,-5.8532886E-2,1.8483852E0,1.0597707E-1,-5.4526705E-2,-1.17283445E-2,2.5967535E-1,-2.8561117E-2,1.9432561E-1,3.0283306E-2,-7.948184E-3,-2.7211875E-2,1.5814379E-1,8.13406E-3,-3.9152515E-1,8.839346E-2,9.7821915E-1,2.0685164E-2,5.968201E-2,-7.5136772E-3,2.3336401E-2,9.4374335E-1,1.2998953E-1,-3.6158296E-1,3.663687E-2,5.381748E-2,1.3828035E-1,1.7559469E-2,5.154993E-2,4.012698E-2,-2.954365E-1,9.170919E-2,4.820032E-2,5.0390575E-2,1.979016E-2,2.8829608E0,1.2685622E-1,3.2250258E-1,1.07451454E-1],"split_indices":[0,2,0,6,2,0,3,2,1,1,0,5,3,0,5,0,1,1,4,3,4,3,6,4,4,2,6,2,2,0,6,5,1,3,0,0,0,0,4,5,1,5,5,0,1,4,4,0,5,1,5,2,3,0,4,3,3,4,2,0,1,3,0,0,0,0,0,0,0,0,0,0,0,0,0,0,0,0,0,0,0,0,0,0,0,0,0,0,0,0,0,0,0,0,0,0,0,0,0,0,0,0,0,0,0,0,0,0,0,0,0,0,0,0,0,0,0,0,0,0,0],"split_type":[0,0,0,0,0,0,0,0,0,0,0,0,0,0,0,0,0,0,0,0,0,0,0,0,0,0,0,0,0,0,0,0,0,0,0,0,0,0,0,0,0,0,0,0,0,0,0,0,0,0,0,0,0,0,0,0,0,0,0,0,0,0,0,0,0,0,0,0,0,0,0,0,0,0,0,0,0,0,0,0,0,0,0,0,0,0,0,0,0,0,0,0,0,0,0,0,0,0,0,0,0,0,0,0,0,0,0,0,0,0,0,0,0,0,0,0,0,0,0,0,0],"sum_hessian":[9.408E4,2.6469E4,6.7611E4,1.2216E4,1.4253E4,5.18E4,1.5811E4,1.2163E4,5.3E1,4.74E2,1.3779E4,2.7158E4,2.4642E4,1.4917E4,8.94E2,2.72E3,9.443E3,5E0,4.8E1,1.07E2,3.67E2,5.418E3,8.361E3,2.5856E4,1.302E3,2.4056E4,5.86E2,8.327E3,6.59E3,8E0,8.86E2,2.394E3,3.26E2,9.436E3,7E0,2E0,3E0,4E0,4.4E1,6.5E1,4.2E1,3.15E2,5.2E1,9E0,5.409E3,5.81E2,7.78E3,2.5637E4,2.19E2,6.84E2,6.18E2,1.3741E4,1.0315E4,3.06E2,2.8E2,4.398E3,3.929E3,7.77E2,5.813E3,2E0,6E0,3.4E1,8.52E2,2.146E3,2.48E2,2.84E2,4.2E1,4.901E3,4.535E3,5E0,2E0,3E0,1E0,3.8E1,6E0,5.9E1,6E0,3.1E1,1.1E1,1.78E2,1.37E2,6E0,4.6E1,8E0,1E0,4.9E1,5.36E3,5.01E2,8E1,7.752E3,2.8E1,1.019E3,2.4618E4,8.3E1,1.36E2,6.79E2,5E0,6.08E2,1E1,1.0908E4,2.833E3,6.434E3,3.881E3,3E0,3.03E2,4E0,2.76E2,4.244E3,1.54E2,2.65E3,1.279E3,7.69E2,8E0,4.865E3,9.48E2,3E0,3E0,2E0,3.2E1,4.5E1,8.07E2],"tree_param":{"num_deleted":"0","num_feature":"7","num_nodes":"121","size_leaf_vector":"1"}},{"base_weights":[1.056812E-3,-5.2850556E0,2.0705621E0,-7.7073975E0,-3.208513E0,7.855832E-1,6.280094E0,-7.8058877E0,1.462114E1,4.6931887E0,-3.4806538E0,-2.8295892E-1,1.9631894E0,5.857591E0,1.3315425E1,-9.571169E0,-7.2964497E0,1.4561552E2,-1.7173792E0,1.5642521E1,1.4670441E0,-5.18531E0,-2.3755336E0,-5.567233E-1,5.1498947E0,1.7985007E0,8.709276E0,4.3083706E0,7.8142066E0,6.436144E1,1.2782472E1,-6.6141615E0,-1.0012049E1,-7.264054E0,-4.459923E1,-2.9487075E-2,2.2063482E0,2.1955376E1,-4.309521E0,-4.1688595E0,4.568691E1,-4.1691005E-1,1.2671996E1,3.1561733E1,-5.252276E0,2.5768204E0,-2.7456524E0,-6.3631856E-1,8.721551E0,4.5932215E-1,1.03322735E1,2.8441722E0,4.053815E-1,1.3964043E1,2.9373105E0,5.6238165E0,2.8348455E0,3.5930471E0,8.377716E0,1.8379707E0,3.9802508E0,7.521965E0,1.7147062E1,-8.040486E-2,-4.691056E-2,-9.566334E-2,-1.4359893E-1,-7.0090204E-2,-1.03235826E-1,-6.646547E-1,1.3999648E-1,3.8331524E-2,4.7222131E-1,-6.961409E-2,1.1080929E-1,-4.7217082E-2,1.1653957E-2,2.0666341E-1,1.0860118E0,4.3018494E-2,-3.6104776E-2,7.2280645E-1,3.524495E-2,-5.8012594E-2,1.8391433E0,1.0493851E-1,-5.3981543E-2,-1.1611295E-2,2.5711066E-1,-3.2587614E-2,7.814401E-3,-9.9412E-3,9.068968E-3,7.116648E-3,1.868578E-1,8.05284E-3,-3.8826242E-1,8.751097E-2,9.693262E-1,2.0478332E-2,5.9085403E-2,-7.438549E-3,2.3103094E-2,1.1317572E-1,4.615012E-1,-3.5869032E-1,3.6271818E-2,5.3279426E-2,1.3690647E-1,1.7383944E-2,5.1034834E-2,3.972623E-2,-2.928104E-1,9.079228E-2,4.7718823E-2,5.0012648E-2,1.9641738E-2,6.119122E-2,4.9244475E-1,4.0120348E-1,1.4525875E-1],"categories":[],"categories_nodes":[],"categories_segments":[],"categories_sizes":[],"default_left":[0,0,0,0,0,0,0,0,0,0,0,0,0,0,0,0,0,0,0,0,0,0,0,0,0,0,0,0,0,0,0,0,0,0,0,0,0,0,0,0,0,0,0,0,0,0,0,0,0,0,0,0,0,0,0,0,0,0,0,0,0,0,0,0,0,0,0,0,0,0,0,0,0,0,0,0,0,0,0,0,0,0,0,0,0,0,0,0,0,0,0,0,0,0,0,0,0,0,0,0,0,0,0,0,0,0,0,0,0,0,0,0,0,0,0,0,0,0,0,0,0],"id":9,"left_children":[1,3,5,7,9,11,13,15,17,19,21,23,25,27,29,31,33,35,37,39,41,43,45,47,49,51,53,55,57,59,61,63,65,67,69,-1,-1,71,73,75,77,79,81,83,85,87,89,91,93,95,97,99,101,103,105,107,109,111,113,-1,115,117,119,-1,-1,-1,-1,-1,-1,-1,-1,-1,-1,-1,-1,-1,-1,-1,-1,-1,-1,-1,-1,-1,-1,-1,-1,-1,-1,-1,-1,-1,-1,-1,-1,-1,-1,-1,-1,-1,-1,-1,-1,-1,-1,-1,-1,-1,-1,-1,-1,-1,-1,-1,-1,-1,-1,-1,-1,-1,-1],"loss_changes":[1.029223E6,1.3312194E5,3.6571922E5,2.6981125E4,3.0667781E4,6.518288E4,4.6922375E4,1.086925E4,1.15823805E5,1.675601E4,2.5947125E4,4.0397043E4,2.736282E4,4.5186156E4,2.3525875E4,3.4811094E3,1.1088625E4,6.752167E4,3.1014111E3,6.4474305E4,7.773622E3,1.3500828E4,1.5334277E4,1.9101121E4,3.1669E4,3.5043773E4,1.7762887E4,1.6126547E4,1.5647719E4,6.4173438E4,2.0236516E4,9.3878125E2,4.4477188E3,7.2911875E3,1.1181188E4,0E0,0E0,2.1084397E3,1.9137576E3,2.0013916E2,6.5444086E4,4.7775493E3,2.8644566E4,5.799043E4,1.2483531E4,5.03581E4,1.4084465E4,1.41573E4,1.754542E4,9.341311E3,8.391164E4,3.3522164E4,2.2585635E4,2.562779E4,7.6528633E3,1.04264375E4,9.766809E3,9.824381E3,1.4663375E4,0E0,4.585747E0,2.3344848E4,2.856239E4,0E0,0E0,0E0,0E0,0E0,0E0,0E0,0E0,0E0,0E0,0E0,0E0,0E0,0E0,0E0,0E0,0E0,0E0,0E0,0E0,0E0,0E0,0E0,0E0,0E0,0E0,0E0,0E0,0E0,0E0,0E0,0E0,0E0,0E0,0E0,0E0,0E0,0E0,0E0,0E0,0E0,0E0,0E0,0E0,0E0,0E0,0E0,0E0,0E0,0E0,0E0,0E0,0E0,0E0,0E0,0E0,0E0,0E0],"parents":[2147483647,0,0,1,1,2,2,3,3,4,4,5,5,6,6,7,7,8,8,9,9,10,10,11,11,12,12,13,13,14,14,15,15,16,16,17,17,18,18,19,19,20,20,21,21,22,22,23,23,24,24,25,25,26,26,27,27,28,28,29,29,30,30,31,31,32,32,33,33,34,34,37,37,38,38,39,39,40,40,41,41,42,42,43,43,44,44,45,45,46,46,47,47,48,48,49,49,50,50,51,51,52,52,53,53,54,54,55,55,56,56,57,57,58,58,60,60,61,61,62,62],"right_children":[2,4,6,8,10,12,14,16,18,20,22,24,26,28,30,32,34,36,38,40,42,44,46,48,50,52,54,56,58,60,62,64,66,68,70,-1,-1,72,74,76,78,80,82,84,86,88,90,92,94,96,98,100,102,104,106,108,110,112,114,-1,116,118,120,-1,-1,-1,-1,-1,-1,-1,-1,-1,-1,-1,-1,-1,-1,-1,-1,-1,-1,-1,-1,-1,-1,-1,-1,-1,-1,-1,-1,-1,-1,-1,-1,-1,-1,-1,-1,-1,-1,-1,-1,-1,-1,-1,-1,-1,-1,-1,-1,-1,-1,-1,-1,-1,-1,-1,-1,-1,-1],"split_conditions":[2.4644E2,1.082E1,9.4977E2,5.2E1,1.103E1,4.9641E2,9.05E3,7.78E0,2.44E1,1.99E1,7.873E1,4.7E1,1.335E4,1.73665E3,4E0,7.39E0,4.88E2,1.99E1,2.1E1,2.55E2,3.5E1,1E2,1.2E1,1E2,4.4E1,1.823E1,4.4E1,2.138E1,1.946E1,1.73665E3,4.8E1,7.224E1,1.8E1,1.6999E2,7.873E1,-2.9487075E-2,2.2063482E0,3.38E1,6.6E1,1.7E1,1.749E1,3.299E1,4E0,6.179E1,1.37E1,3.1E1,8.05E3,1.4999E2,1.029E2,1.3499E3,8.6E1,1.709E1,1.975E3,4.2E1,2.6E1,3.75E3,1.975E3,6E1,4.719E1,1.8379707E0,1.659E2,2.585E4,9.8E3,-8.040486E-2,-4.691056E-2,-9.566334E-2,-1.4359893E-1,-7.0090204E-2,-1.03235826E-1,-6.646547E-1,1.3999648E-1,3.8331524E-2,4.7222131E-1,-6.961409E-2,1.1080929E-1,-4.7217082E-2,1.1653957E-2,2.0666341E-1,1.0860118E0,4.3018494E-2,-3.6104776E-2,7.2280645E-1,3.524495E-2,-5.8012594E-2,1.8391433E0,1.0493851E-1,-5.3981543E-2,-1.1611295E-2,2.5711066E-1,-3.2587614E-2,7.814401E-3,-9.9412E-3,9.068968E-3,7.116648E-3,1.868578E-1,8.05284E-3,-3.8826242E-1,8.751097E-2,9.693262E-1,2.0478332E-2,5.9085403E-2,-7.438549E-3,2.3103094E-2,1.1317572E-1,4.615012E-1,-3.5869032E-1,3.6271818E-2,5.3279426E-2,1.3690647E-1,1.7383944E-2,5.1034834E-2,3.972623E-2,-2.928104E-1,9.079228E-2,4.7718823E-2,5.0012648E-2,1.9641738E-2,6.119122E-2,4.9244475E-1,4.0120348E-1,1.4525875E-1],"split_indices":[0,2,0,6,2,0,3,2,1,1,0,5,3,0,5,2,1,1,4,3,4,3,6,4,4,2,6,2,2,0,4,0,5,1,0,0,0,0,4,5,1,1,5,0,1,4,3,1,1,1,5,2,3,6,4,3,3,4,2,0,1,3,3,0,0,0,0,0,0,0,0,0,0,0,0,0,0,0,0,0,0,0,0,0,0,0,0,0,0,0,0,0,0,0,0,0,0,0,0,0,0,0,0,0,0,0,0,0,0,0,0,0,0,0,0,0,0,0,0,0,0],"split_type":[0,0,0,0,0,0,0,0,0,0,0,0,0,0,0,0,0,0,0,0,0,0,0,0,0,0,0,0,0,0,0,0,0,0,0,0,0,0,0,0,0,0,0,0,0,0,0,0,0,0,0,0,0,0,0,0,0,0,0,0,0,0,0,0,0,0,0,0,0,0,0,0,0,0,0,0,0,0,0,0,0,0,0,0,0,0,0,0,0,0,0,0,0,0,0,0,0,0,0,0,0,0,0,0,0,0,0,0,0,0,0,0,0,0,0,0,0,0,0,0,0],"sum_hessian":[9.408E4,2.6469E4,6.7611E4,1.2216E4,1.4253E4,5.18E4,1.5811E4,1.2163E4,5.3E1,4.74E2,1.3779E4,2.7158E4,2.4642E4,1.4917E4,8.94E2,2.72E3,9.443E3,5E0,4.8E1,1.07E2,3.67E2,5.418E3,8.361E3,2.5856E4,1.302E3,2.4056E4,5.86E2,8.327E3,6.59E3,8E0,8.86E2,3.55E2,2.365E3,9.436E3,7E0,2E0,3E0,4E0,4.4E1,6.5E1,4.2E1,3.15E2,5.2E1,9E0,5.409E3,5.81E2,7.78E3,2.5637E4,2.19E2,6.84E2,6.18E2,1.3741E4,1.0315E4,3.06E2,2.8E2,4.398E3,3.929E3,7.77E2,5.813E3,2E0,6E0,4.03E2,4.83E2,2.02E2,1.53E2,2.148E3,2.17E2,8.713E3,7.23E2,5E0,2E0,3E0,1E0,3.8E1,6E0,5.9E1,6E0,3.1E1,1.1E1,1.27E2,1.88E2,6E0,4.6E1,8E0,1E0,4.9E1,5.36E3,5.01E2,8E1,6.792E3,9.88E2,2.0812E4,4.825E3,1.22E2,9.7E1,6.79E2,5E0,6.08E2,1E1,1.0908E4,2.833E3,6.434E3,3.881E3,2.84E2,2.2E1,4E0,2.76E2,4.244E3,1.54E2,2.65E3,1.279E3,7.69E2,8E0,4.865E3,9.48E2,3E0,3E0,3.91E2,1.2E1,4.8E1,4.35E2],"tree_param":{"num_deleted":"0","num_feature":"7","num_nodes":"121","size_leaf_vector":"1"}},{"base_weights":[1.1536467E-3,-5.282847E0,2.0302448E0,-7.6338425E0,-3.2175224E0,7.6103646E-1,6.2174926E0,-7.7313523E0,1.4872989E1,4.837435E0,-3.4973352E0,-2.9770935E-1,1.9435717E0,5.7990246E0,1.3185631E1,-9.486007E0,-7.2254586E0,1.7420534E2,-1.6889449E0,-1.7303863E0,1.0351909E1,-5.1331186E0,-2.3907957E0,-5.420407E-1,5.9126267E0,1.7805197E0,8.622614E0,4.265318E0,7.736047E0,6.3929787E1,1.2655887E1,-6.586904E0,-9.914717E0,-7.1933155E0,-4.4218826E1,-2.4467872E-2,2.1898007E0,2.1837933E1,-4.26551E0,-2.6096585E0,9.277728E-1,4.7851208E1,3.1190898E0,3.1424232E1,-5.1997433E0,2.4362075E0,-2.7516751E0,-6.226795E-1,8.914194E0,4.8170214E0,3.9265606E1,2.8157363E0,4.0132937E-1,1.3826275E1,2.90679E0,5.567621E0,2.8065145E0,3.5567913E0,8.2939625E0,1.8257176E0,3.950399E0,3.6266594E1,1.1672264E1,-7.9604775E-2,-4.69669E-2,-9.4734676E-2,-1.4216954E-1,-3.938656E-1,-7.168645E-2,-6.591159E-1,1.3906316E-1,3.8044035E-2,4.6986023E-1,-6.89358E-2,1.098595E-1,-4.5439735E-2,4.7127627E-2,7.4715644E-1,-9.295617E-2,3.629553E-1,7.927752E-3,-5.7496924E-2,1.8299478E0,-5.3287923E-2,1.2258319E-1,-1.5049961E-2,2.6351923E-1,-3.2445822E-2,5.875562E-3,-9.779828E-3,8.831259E-3,7.046064E-3,1.8726596E-1,4.3202102E-2,7.5385755E-1,8.4082924E-2,1.5267731E0,2.0273568E-2,5.8494754E-2,-7.3641734E-3,2.2872126E-2,9.3581647E-1,1.2731381E-1,-3.558208E-1,3.591041E-2,5.2746758E-2,1.3554624E-1,1.7210176E-2,5.0524883E-2,3.9329488E-2,-2.9020765E-1,8.988455E-2,4.7242135E-2,4.9637556E-2,1.9494424E-2,2.8610666E0,1.2454872E-1,3.1801486E-1,1.05118476E-1],"categories":[],"categories_nodes":[],"categories_segments":[],"categories_sizes":[],"default_left":[0,0,0,0,0,0,0,0,0,0,0,0,0,0,0,0,0,0,0,0,0,0,0,0,0,0,0,0,0,0,0,0,0,0,0,0,0,0,0,0,0,0,0,0,0,0,0,0,0,0,0,0,0,0,0,0,0,0,0,0,0,0,0,0,0,0,0,0,0,0,0,0,0,0,0,0,0,0,0,0,0,0,0,0,0,0,0,0,0,0,0,0,0,0,0,0,0,0,0,0,0,0,0,0,0,0,0,0,0,0,0,0,0,0,0,0,0,0,0],"id":10,"left_children":[1,3,5,7,9,11,13,15,17,19,21,23,25,27,29,31,33,35,37,39,41,43,45,47,49,51,53,55,57,59,61,63,65,67,69,-1,-1,71,73,75,-1,77,79,81,83,85,87,89,91,93,95,97,99,101,103,105,107,109,111,-1,113,115,117,-1,-1,-1,-1,-1,-1,-1,-1,-1,-1,-1,-1,-1,-1,-1,-1,-1,-1,-1,-1,-1,-1,-1,-1,-1,-1,-1,-1,-1,-1,-1,-1,-1,-1,-1,-1,-1,-1,-1,-1,-1,-1,-1,-1,-1,-1,-1,-1,-1,-1,-1,-1,-1,-1,-1,-1],"loss_changes":[1.00872075E6,1.2672519E5,3.612636E5,2.6904875E4,3.134136E4,6.5313883E4,4.6030438E4,1.07210625E4,1.4015338E5,1.6931756E4,2.4300453E4,4.176909E4,2.682164E4,4.428575E4,2.3249781E4,3.3115781E3,1.0905625E4,4.0083547E4,3.0634583E3,1.8025078E4,6.8742055E4,1.33620625E4,1.3966816E4,2.0200633E4,3.7887297E4,3.4346508E4,1.7419074E4,1.5805922E4,1.53385625E4,6.332343E4,2.0176422E4,8.791221E2,4.3549375E3,7.2087812E3,1.100375E4,0E0,0E0,2.0887903E3,1.8794178E3,3.038319E3,0E0,6.3638445E4,1.6487496E4,5.7396887E4,1.2253766E4,5.2634906E4,1.2275613E4,1.4050963E4,1.8031299E4,3.5084234E4,1.1420241E5,3.28554E4,2.2136287E4,2.5616938E4,7.528208E3,1.0221094E4,9.572635E3,9.647976E3,1.4371406E4,0E0,4.517227E0,2.0465584E5,1.959032E4,0E0,0E0,0E0,0E0,0E0,0E0,0E0,0E0,0E0,0E0,0E0,0E0,0E0,0E0,0E0,0E0,0E0,0E0,0E0,0E0,0E0,0E0,0E0,0E0,0E0,0E0,0E0,0E0,0E0,0E0,0E0,0E0,0E0,0E0,0E0,0E0,0E0,0E0,0E0,0E0,0E0,0E0,0E0,0E0,0E0,0E0,0E0,0E0,0E0,0E0,0E0,0E0,0E0,0E0,0E0,0E0],"parents":[2147483647,0,0,1,1,2,2,3,3,4,4,5,5,6,6,7,7,8,8,9,9,10,10,11,11,12,12,13,13,14,14,15,15,16,16,17,17,18,18,19,19,20,20,21,21,22,22,23,23,24,24,25,25,26,26,27,27,28,28,29,29,30,30,31,31,32,32,33,33,34,34,37,37,38,38,39,39,41,41,42,42,43,43,44,44,45,45,46,46,47,47,48,48,49,49,50,50,51,51,52,52,53,53,54,54,55,55,56,56,57,57,58,58,60,60,61,61,62,62],"right_children":[2,4,6,8,10,12,14,16,18,20,22,24,26,28,30,32,34,36,38,40,42,44,46,48,50,52,54,56,58,60,62,64,66,68,70,-1,-1,72,74,76,-1,78,80,82,84,86,88,90,92,94,96,98,100,102,104,106,108,110,112,-1,114,116,118,-1,-1,-1,-1,-1,-1,-1,-1,-1,-1,-1,-1,-1,-1,-1,-1,-1,-1,-1,-1,-1,-1,-1,-1,-1,-1,-1,-1,-1,-1,-1,-1,-1,-1,-1,-1,-1,-1,-1,-1,-1,-1,-1,-1,-1,-1,-1,-1,-1,-1,-1,-1,-1,-1,-1,-1],"split_conditions":[2.405E2,1.082E1,9.4977E2,5.2E1,1.103E1,4.9641E2,9.05E3,7.78E0,2.44E1,2.55E2,7.873E1,5.1E1,1.335E4,1.73665E3,4E0,7.39E0,4.88E2,1.866E1,2.1E1,9.2E1,1.99E1,1E2,1.2E1,1E2,4.8762E2,1.823E1,4.4E1,2.138E1,1.946E1,1.73665E3,1.7E1,7.224E1,1.8E1,1E1,7.873E1,-2.4467872E-2,2.1898007E0,3.38E1,6.6E1,1.5E1,9.277728E-1,1.8E1,4E0,6.179E1,1.3499E3,3.1E1,8.05E3,1.4999E2,1.029E2,9.4E1,4.7E1,1.709E1,1.975E3,4.9989E2,2.6E1,3.75E3,1.975E3,6E1,4.719E1,1.8257176E0,1.659E2,9.8E3,9.8593E2,-7.9604775E-2,-4.69669E-2,-9.4734676E-2,-1.4216954E-1,-3.938656E-1,-7.168645E-2,-6.591159E-1,1.3906316E-1,3.8044035E-2,4.6986023E-1,-6.89358E-2,1.098595E-1,-4.5439735E-2,4.7127627E-2,7.4715644E-1,-9.295617E-2,3.629553E-1,7.927752E-3,-5.7496924E-2,1.8299478E0,-5.3287923E-2,1.2258319E-1,-1.5049961E-2,2.6351923E-1,-3.2445822E-2,5.875562E-3,-9.779828E-3,8.831259E-3,7.046064E-3,1.8726596E-1,4.3202102E-2,7.5385755E-1,8.4082924E-2,1.5267731E0,2.0273568E-2,5.8494754E-2,-7.3641734E-3,2.2872126E-2,9.3581647E-1,1.2731381E-1,-3.558208E-1,3.591041E-2,5.2746758E-2,1.3554624E-1,1.7210176E-2,5.0524883E-2,3.9329488E-2,-2.9020765E-1,8.988455E-2,4.7242135E-2,4.9637556E-2,1.9494424E-2,2.8610666E0,1.2454872E-1,3.1801486E-1,1.05118476E-1],"split_indices":[0,2,0,6,2,0,3,2,1,3,0,5,3,0,5,2,1,0,4,1,1,3,6,4,0,2,6,2,2,0,6,0,5,6,0,0,0,0,4,5,0,6,5,0,1,4,3,1,1,4,6,2,3,0,4,3,3,4,2,0,1,3,0,0,0,0,0,0,0,0,0,0,0,0,0,0,0,0,0,0,0,0,0,0,0,0,0,0,0,0,0,0,0,0,0,0,0,0,0,0,0,0,0,0,0,0,0,0,0,0,0,0,0,0,0,0,0,0,0],"split_type":[0,0,0,0,0,0,0,0,0,0,0,0,0,0,0,0,0,0,0,0,0,0,0,0,0,0,0,0,0,0,0,0,0,0,0,0,0,0,0,0,0,0,0,0,0,0,0,0,0,0,0,0,0,0,0,0,0,0,0,0,0,0,0,0,0,0,0,0,0,0,0,0,0,0,0,0,0,0,0,0,0,0,0,0,0,0,0,0,0,0,0,0,0,0,0,0,0,0,0,0,0,0,0,0,0,0,0,0,0,0,0,0,0,0,0,0,0,0,0],"sum_hessian":[9.408E4,2.6103E4,6.7977E4,1.2206E4,1.3897E4,5.2166E4,1.5811E4,1.2154E4,5.2E1,4.66E2,1.3431E4,2.7524E4,2.4642E4,1.4917E4,8.94E2,2.716E3,9.438E3,4E0,4.8E1,2.13E2,2.53E2,5.418E3,8.013E3,2.6483E4,1.041E3,2.4056E4,5.86E2,8.327E3,6.59E3,8E0,8.86E2,3.52E2,2.364E3,9.431E3,7E0,1E0,3E0,4E0,4.4E1,2.12E2,1E0,4E1,2.13E2,9E0,5.409E3,5.57E2,7.456E3,2.626E4,2.23E2,1.009E3,3.2E1,1.3741E4,1.0315E4,3.06E2,2.8E2,4.398E3,3.929E3,7.77E2,5.813E3,2E0,6E0,3.4E1,8.52E2,2.02E2,1.5E2,2.147E3,2.17E2,6E0,9.425E3,5E0,2E0,3E0,1E0,3.8E1,6E0,1.68E2,4.4E1,2.7E1,1.3E1,1.3E1,2E2,8E0,1E0,5.37E3,3.9E1,4.79E2,7.8E1,6.497E3,9.59E2,2.1247E4,5.013E3,1.22E2,1.01E2,1.003E3,6E0,2.6E1,6E0,1.0908E4,2.833E3,6.434E3,3.881E3,3E0,3.03E2,4E0,2.76E2,4.244E3,1.54E2,2.65E3,1.279E3,7.69E2,8E0,4.865E3,9.48E2,3E0,3E0,2E0,3.2E1,4.5E1,8.07E2],"tree_param":{"num_deleted":"0","num_feature":"7","num_nodes":"119","size_leaf_vector":"1"}},{"base_weights":[1.2939044E-3,-5.1796737E0,2.0296352E0,-7.5537944E0,-3.1444685E0,7.7014667E-1,6.155662E0,-7.6507664E0,1.4429928E1,4.6071944E0,-3.4114423E0,-2.7699688E-1,1.9241703E0,4.5035043E0,7.887725E0,-9.380997E0,-7.1514435E0,1.43433E2,-1.6608552E0,1.5340238E1,1.4447603E0,-5.081448E0,-2.328786E0,-5.456607E-1,5.054635E0,1.7627187E0,8.537653E0,4.2042255E0,1.7715162E1,7.3231215E0,1.4026179E1,-9.796738E0,-6.307357E0,-7.119582E0,-4.3841644E1,-2.917634E-2,2.1733773E0,2.1721134E1,-4.2219462E0,-4.0983863E0,4.4819515E1,-4.2158264E-1,1.254513E1,3.1287235E1,-5.1477337E0,2.5288234E0,-2.691824E0,-6.2367857E-1,8.548743E0,4.1725855E0,3.210278E1,2.787585E0,3.9731774E-1,1.3691474E1,2.8765833E0,5.4867287E0,2.7499118E0,1.0390597E1,4.3742046E1,2.2206636E1,7.1925626E0,7.485654E1,1.3437656E1,-9.3657285E-2,-1.3473766E-1,-7.13762E-2,-6.5777292E-3,-6.2782295E-2,-8.027252E-2,-6.536233E-1,1.3813609E-1,3.7758708E-2,4.6751094E-1,-6.826412E-2,1.0891783E-1,-4.6383094E-2,1.1150114E-2,2.0052171E-1,1.071308E0,3.0264994E-2,-4.777932E-2,4.776583E-1,-2.6147744E-2,-5.6985836E-2,1.820798E0,1.04432315E-1,-5.2921843E-2,-1.1347896E-2,2.520296E-1,-2.7735373E-2,1.9246645E-1,3.0114349E-2,-7.742611E-3,-2.7640013E-2,1.5422626E-1,1.978945E-3,8.481453E-2,7.893006E-2,1.4856553E0,2.0070855E-2,5.791001E-2,-7.2905426E-3,2.2643466E-2,9.2879784E-1,1.2604485E-1,-3.5297424E-1,3.55526E-2,4.6718437E-2,8.441374E-2,1.2095096E-2,5.229737E-2,4.058641E-2,2.2968154E-1,6.019158E-1,1.714631E-2,4.634362E-1,4.15752E-2,3.468571E-2,7.6819226E-2,2.0751595E0,6.8214625E-2,1.265003E-1,5.761201E-1],"categories":[],"categories_nodes":[],"categories_segments":[],"categories_sizes":[],"default_left":[0,0,0,0,0,0,0,0,0,0,0,0,0,0,0,0,0,0,0,0,0,0,0,0,0,0,0,0,0,0,0,0,0,0,0,0,0,0,0,0,0,0,0,0,0,0,0,0,0,0,0,0,0,0,0,0,0,0,0,0,0,0,0,0,0,0,0,0,0,0,0,0,0,0,0,0,0,0,0,0,0,0,0,0,0,0,0,0,0,0,0,0,0,0,0,0,0,0,0,0,0,0,0,0,0,0,0,0,0,0,0,0,0,0,0,0,0,0,0,0,0,0,0],"id":11,"left_children":[1,3,5,7,9,11,13,15,17,19,21,23,25,27,29,31,33,35,37,39,41,43,45,47,49,51,53,55,57,59,61,63,65,67,69,-1,-1,71,73,75,77,79,81,83,85,87,89,91,93,95,97,99,101,103,105,107,109,111,113,115,117,119,121,-1,-1,-1,-1,-1,-1,-1,-1,-1,-1,-1,-1,-1,-1,-1,-1,-1,-1,-1,-1,-1,-1,-1,-1,-1,-1,-1,-1,-1,-1,-1,-1,-1,-1,-1,-1,-1,-1,-1,-1,-1,-1,-1,-1,-1,-1,-1,-1,-1,-1,-1,-1,-1,-1,-1,-1,-1,-1,-1,-1],"loss_changes":[9.8868606E5,1.27874625E5,3.513534E5,2.6154688E4,2.9514203E4,6.259833E4,4.521275E4,1.04419375E4,1.1232928E5,1.6100545E4,2.4903E4,3.8905754E4,2.629768E4,3.1932906E4,2.6646281E4,3.4151875E3,1.07278125E4,6.5530133E4,3.0259922E3,6.2071637E4,7.62918E3,1.3224766E4,1.4753172E4,1.8351555E4,3.095277E4,3.366315E4,1.7087016E4,1.4751406E4,3.366927E4,1.35785E4,2.2228312E4,3.6694844E3,1.5291436E3,7.156375E3,1.0829134E4,0E0,0E0,2.0693198E3,1.8456956E3,1.909508E2,6.4213047E4,4.7611123E3,2.8423848E4,5.6809465E4,1.2239266E4,4.837491E4,1.4002121E4,1.4036182E4,1.7150373E4,2.162899E4,1.1442839E5,3.2201883E4,2.169588E4,2.5254883E4,7.405586E3,1.0087328E4,1.417325E4,1.1136098E4,2.6858719E4,2.6382047E4,1.27481875E4,5.2737406E4,2.1677836E4,0E0,0E0,0E0,0E0,0E0,0E0,0E0,0E0,0E0,0E0,0E0,0E0,0E0,0E0,0E0,0E0,0E0,0E0,0E0,0E0,0E0,0E0,0E0,0E0,0E0,0E0,0E0,0E0,0E0,0E0,0E0,0E0,0E0,0E0,0E0,0E0,0E0,0E0,0E0,0E0,0E0,0E0,0E0,0E0,0E0,0E0,0E0,0E0,0E0,0E0,0E0,0E0,0E0,0E0,0E0,0E0,0E0,0E0,0E0,0E0],"parents":[2147483647,0,0,1,1,2,2,3,3,4,4,5,5,6,6,7,7,8,8,9,9,10,10,11,11,12,12,13,13,14,14,15,15,16,16,17,17,18,18,19,19,20,20,21,21,22,22,23,23,24,24,25,25,26,26,27,27,28,28,29,29,30,30,31,31,32,32,33,33,34,34,37,37,38,38,39,39,40,40,41,41,42,42,43,43,44,44,45,45,46,46,47,47,48,48,49,49,50,50,51,51,52,52,53,53,54,54,55,55,56,56,57,57,58,58,59,59,60,60,61,61,62,62],"right_children":[2,4,6,8,10,12,14,16,18,20,22,24,26,28,30,32,34,36,38,40,42,44,46,48,50,52,54,56,58,60,62,64,66,68,70,-1,-1,72,74,76,78,80,82,84,86,88,90,92,94,96,98,100,102,104,106,108,110,112,114,116,118,120,122,-1,-1,-1,-1,-1,-1,-1,-1,-1,-1,-1,-1,-1,-1,-1,-1,-1,-1,-1,-1,-1,-1,-1,-1,-1,-1,-1,-1,-1,-1,-1,-1,-1,-1,-1,-1,-1,-1,-1,-1,-1,-1,-1,-1,-1,-1,-1,-1,-1,-1,-1,-1,-1,-1,-1,-1,-1,-1,-1,-1],"split_conditions":[2.4644E2,1.082E1,9.4977E2,5.2E1,1.103E1,4.9641E2,1.61171E3,7.78E0,2.44E1,1.99E1,7.873E1,4.7E1,1.335E4,1.45E4,6.7E3,1.1613E2,4.88E2,1.99E1,2.1E1,2.55E2,3.5E1,1E2,1.2E1,1E2,4.8762E2,1.823E1,4.4E1,2.122E1,8.3E1,1E2,4.299E1,1.8E1,7.9E1,4E2,7.873E1,-2.917634E-2,2.1733773E0,3.38E1,6.6E1,1.7E1,1.749E1,1.7E1,3.8E1,6.179E1,1.37E1,3.1E1,1.05E2,2.6629E2,8E0,4.4E1,8.6E1,1.709E1,1.975E3,4.9989E2,2.6E1,3.5E1,1.975E3,2.05E4,1.76E4,2.457E1,1.938E1,1.73665E3,1.05E2,-9.3657285E-2,-1.3473766E-1,-7.13762E-2,-6.5777292E-3,-6.2782295E-2,-8.027252E-2,-6.536233E-1,1.3813609E-1,3.7758708E-2,4.6751094E-1,-6.826412E-2,1.0891783E-1,-4.6383094E-2,1.1150114E-2,2.0052171E-1,1.071308E0,3.0264994E-2,-4.777932E-2,4.776583E-1,-2.6147744E-2,-5.6985836E-2,1.820798E0,1.04432315E-1,-5.2921843E-2,-1.1347896E-2,2.520296E-1,-2.7735373E-2,1.9246645E-1,3.0114349E-2,-7.742611E-3,-2.7640013E-2,1.5422626E-1,1.978945E-3,8.481453E-2,7.893006E-2,1.4856553E0,2.0070855E-2,5.791001E-2,-7.2905426E-3,2.2643466E-2,9.2879784E-1,1.2604485E-1,-3.5297424E-1,3.55526E-2,4.6718437E-2,8.441374E-2,1.2095096E-2,5.229737E-2,4.058641E-2,2.2968154E-1,6.019158E-1,1.714631E-2,4.634362E-1,4.15752E-2,3.468571E-2,7.6819226E-2,2.0751595E0,6.8214625E-2,1.265003E-1,5.761201E-1],"split_indices":[0,2,0,6,2,0,0,2,1,1,0,5,3,3,3,0,1,1,4,3,4,3,6,4,0,2,6,2,4,3,1,5,1,3,0,0,0,0,4,5,1,6,4,0,1,4,4,0,5,4,5,2,3,0,4,4,3,3,3,2,2,0,5,0,0,0,0,0,0,0,0,0,0,0,0,0,0,0,0,0,0,0,0,0,0,0,0,0,0,0,0,0,0,0,0,0,0,0,0,0,0,0,0,0,0,0,0,0,0,0,0,0,0,0,0,0,0,0,0,0,0,0,0],"split_type":[0,0,0,0,0,0,0,0,0,0,0,0,0,0,0,0,0,0,0,0,0,0,0,0,0,0,0,0,0,0,0,0,0,0,0,0,0,0,0,0,0,0,0,0,0,0,0,0,0,0,0,0,0,0,0,0,0,0,0,0,0,0,0,0,0,0,0,0,0,0,0,0,0,0,0,0,0,0,0,0,0,0,0,0,0,0,0,0,0,0,0,0,0,0,0,0,0,0,0,0,0,0,0,0,0,0,0,0,0,0,0,0,0,0,0,0,0,0,0,0,0,0,0],"sum_hessian":[9.408E4,2.6469E4,6.7611E4,1.2216E4,1.4253E4,5.18E4,1.5811E4,1.2163E4,5.3E1,4.74E2,1.3779E4,2.7158E4,2.4642E4,8.094E3,7.717E3,2.72E3,9.443E3,5E0,4.8E1,1.07E2,3.67E2,5.418E3,8.361E3,2.5856E4,1.302E3,2.4056E4,5.86E2,7.916E3,1.78E2,7.069E3,6.48E2,2.394E3,3.26E2,9.436E3,7E0,2E0,3E0,4E0,4.4E1,6.5E1,4.2E1,3.15E2,5.2E1,9E0,5.409E3,5.81E2,7.78E3,2.5637E4,2.19E2,1.262E3,4E1,1.3741E4,1.0315E4,3.06E2,2.8E2,4.205E3,3.711E3,1.4E2,3.8E1,6E1,7.009E3,5E0,6.43E2,2.146E3,2.48E2,2.84E2,4.2E1,4.901E3,4.535E3,5E0,2E0,3E0,1E0,3.8E1,6E0,5.9E1,6E0,3.1E1,1.1E1,1.76E2,1.39E2,1.5E1,3.7E1,8E0,1E0,4.9E1,5.36E3,5.01E2,8E1,7.752E3,2.8E1,1.019E3,2.4618E4,8.3E1,1.36E2,6.57E2,6.05E2,3.4E1,6E0,1.0908E4,2.833E3,6.434E3,3.881E3,3E0,3.03E2,4E0,2.76E2,3.298E3,9.07E2,2.29E3,1.421E3,9.4E1,4.6E1,2.7E1,1.1E1,2.5E1,3.5E1,8.15E2,6.194E3,1E0,4E0,6.33E2,1E1],"tree_param":{"num_deleted":"0","num_feature":"7","num_nodes":"123","size_leaf_vector":"1"}},{"base_weights":[1.4170862E-3,-5.1276646E0,2.0094452E0,-7.478115E0,-3.1127505E0,7.624962E-1,6.094393E0,-7.574338E0,1.43354435E1,4.5646396E0,-3.3771663E0,-2.7416033E-1,1.9049623E0,5.683285E0,1.2939984E1,-7.550095E0,-4.3467663E1,1.4235602E2,-1.6331055E0,1.5198285E1,1.431492E0,-5.030298E0,-2.3054492E0,-5.40198E-1,5.0053563E0,1.7450955E0,8.453533E0,4.1782975E0,7.5840373E0,6.3186783E1,1.2415564E1,-9.287299E0,-7.0484014E0,-6.481764E1,1.3721517E-1,-2.8981827E-2,2.1570766E0,2.1604977E1,-4.1788235E0,-4.057936E0,4.4400898E1,-4.1742215E-1,1.2428198E1,3.1150743E1,-5.0962462E0,2.5039487E0,-2.6648843E0,-6.1744064E-1,8.463831E0,4.1309285E0,3.1819914E1,2.7597148E0,3.933464E-1,1.3557996E1,2.8466876E0,5.4572763E0,2.7456243E0,3.7783165E0,8.176725E0,1.8064545E0,3.8206687E0,3.5888412E1,1.1437879E1,-9.698865E-2,-6.244522E-2,-6.796101E-2,-1.00753345E-1,-7.358776E-3,-1.2865411E0,3.7475515E-2,4.6517336E-1,-6.759898E-2,1.0798425E-1,-4.5926996E-2,1.1054541E-2,1.9857919E-1,1.0614877E0,-3.8038027E-2,3.9780818E-2,7.133152E-1,3.3909325E-2,-5.6479294E-2,1.811694E0,-5.224038E-2,1.21904E-1,-1.1234646E-2,2.4954042E-1,-2.7458051E-2,1.9060816E-1,2.9813504E-2,-7.6651853E-3,-2.7366899E-2,1.5269524E-1,1.9591867E-3,8.396779E-2,7.816331E-2,1.4729213E0,1.9870162E-2,5.733112E-2,-7.2176456E-3,2.2417095E-2,1.0935363E-1,4.5466343E-1,-3.5015044E-1,3.5198353E-2,5.1678605E-2,1.3348334E-1,1.8674884E-2,5.427041E-2,4.106551E-2,-2.880852E-1,8.889905E-2,4.5954425E-2,4.846224E-2,1.8399468E-2,2.8416438E0,1.223034E-1,3.1147045E-1,1.0301666E-1],"categories":[],"categories_nodes":[],"categories_segments":[],"categories_sizes":[],"default_left":[0,0,0,0,0,0,0,0,0,0,0,0,0,0,0,0,0,0,0,0,0,0,0,0,0,0,0,0,0,0,0,0,0,0,0,0,0,0,0,0,0,0,0,0,0,0,0,0,0,0,0,0,0,0,0,0,0,0,0,0,0,0,0,0,0,0,0,0,0,0,0,0,0,0,0,0,0,0,0,0,0,0,0,0,0,0,0,0,0,0,0,0,0,0,0,0,0,0,0,0,0,0,0,0,0,0,0,0,0,0,0,0,0,0,0,0,0,0,0],"id":12,"left_children":[1,3,5,7,9,11,13,15,17,19,21,23,25,27,29,31,33,35,37,39,41,43,45,47,49,51,53,55,57,59,61,63,65,67,-1,-1,-1,69,71,73,75,77,79,81,83,85,87,89,91,93,95,97,99,101,103,105,107,109,111,-1,113,115,117,-1,-1,-1,-1,-1,-1,-1,-1,-1,-1,-1,-1,-1,-1,-1,-1,-1,-1,-1,-1,-1,-1,-1,-1,-1,-1,-1,-1,-1,-1,-1,-1,-1,-1,-1,-1,-1,-1,-1,-1,-1,-1,-1,-1,-1,-1,-1,-1,-1,-1,-1,-1,-1,-1,-1,-1],"loss_changes":[9.689825E5,1.253375E5,3.4439206E5,2.5751562E4,2.8951328E4,6.1350773E4,4.442575E4,1.02564375E4,1.1062485E5,1.5803714E4,2.4402297E4,3.814889E4,2.5783992E4,4.2642812E4,2.2799156E4,1.0529875E4,1.06573E4,6.4552977E4,2.9890059E3,6.091203E4,7.487351E3,1.3088906E4,1.4461781E4,1.7988635E4,3.0420504E4,3.2993344E4,1.6761305E4,1.5244906E4,1.4835781E4,6.20674E4,1.9945328E4,3.3469531E3,7.1385312E3,2.4449848E4,0E0,0E0,0E0,2.0500273E3,1.8125793E3,1.8731567E2,6.305761E4,4.7187446E3,2.7971342E4,5.622811E4,1.2014859E4,4.742365E4,1.373184E4,1.3757079E4,1.6811797E4,2.1199283E4,1.1249034E5,3.156139E4,2.1264236E4,2.519375E4,7.284966E3,9.977445E3,9.243635E3,9.637866E3,1.4522625E4,0E0,5.3025894E0,2.0210519E5,1.8781047E4,0E0,0E0,0E0,0E0,0E0,0E0,0E0,0E0,0E0,0E0,0E0,0E0,0E0,0E0,0E0,0E0,0E0,0E0,0E0,0E0,0E0,0E0,0E0,0E0,0E0,0E0,0E0,0E0,0E0,0E0,0E0,0E0,0E0,0E0,0E0,0E0,0E0,0E0,0E0,0E0,0E0,0E0,0E0,0E0,0E0,0E0,0E0,0E0,0E0,0E0,0E0,0E0,0E0,0E0,0E0,0E0],"parents":[2147483647,0,0,1,1,2,2,3,3,4,4,5,5,6,6,7,7,8,8,9,9,10,10,11,11,12,12,13,13,14,14,15,15,16,16,17,17,18,18,19,19,20,20,21,21,22,22,23,23,24,24,25,25,26,26,27,27,28,28,29,29,30,30,31,31,32,32,33,33,37,37,38,38,39,39,40,40,41,41,42,42,43,43,44,44,45,45,46,46,47,47,48,48,49,49,50,50,51,51,52,52,53,53,54,54,55,55,56,56,57,57,58,58,60,60,61,61,62,62],"right_children":[2,4,6,8,10,12,14,16,18,20,22,24,26,28,30,32,34,36,38,40,42,44,46,48,50,52,54,56,58,60,62,64,66,68,-1,-1,-1,70,72,74,76,78,80,82,84,86,88,90,92,94,96,98,100,102,104,106,108,110,112,-1,114,116,118,-1,-1,-1,-1,-1,-1,-1,-1,-1,-1,-1,-1,-1,-1,-1,-1,-1,-1,-1,-1,-1,-1,-1,-1,-1,-1,-1,-1,-1,-1,-1,-1,-1,-1,-1,-1,-1,-1,-1,-1,-1,-1,-1,-1,-1,-1,-1,-1,-1,-1,-1,-1,-1,-1,-1,-1],"split_conditions":[2.4644E2,1.082E1,9.4977E2,5.2E1,1.103E1,4.9641E2,9.05E3,4.88E2,2.44E1,1.99E1,7.873E1,4.7E1,1.335E4,1.73665E3,4E0,7.78E0,7.873E1,1.99E1,2.1E1,2.55E2,3.5E1,1E2,1.2E1,1E2,4.8762E2,1.823E1,4.4E1,2.138E1,2.052E1,1.73665E3,1.7E1,1.1613E2,1.6999E2,3.38E1,1.3721517E-1,-2.8981827E-2,2.1570766E0,3.38E1,6.6E1,1.7E1,1.749E1,1.1E1,4E0,6.179E1,1.3499E3,3.1E1,1.05E2,2.6629E2,8E0,4.4E1,8.6E1,1.709E1,1.975E3,4.2E1,2.6E1,3.75E3,2.7E3,6E1,4.719E1,1.8064545E0,1.659E2,9.8E3,9.8593E2,-9.698865E-2,-6.244522E-2,-6.796101E-2,-1.00753345E-1,-7.358776E-3,-1.2865411E0,3.7475515E-2,4.6517336E-1,-6.759898E-2,1.0798425E-1,-4.5926996E-2,1.1054541E-2,1.9857919E-1,1.0614877E0,-3.8038027E-2,3.9780818E-2,7.133152E-1,3.3909325E-2,-5.6479294E-2,1.811694E0,-5.224038E-2,1.21904E-1,-1.1234646E-2,2.4954042E-1,-2.7458051E-2,1.9060816E-1,2.9813504E-2,-7.6651853E-3,-2.7366899E-2,1.5269524E-1,1.9591867E-3,8.396779E-2,7.816331E-2,1.4729213E0,1.9870162E-2,5.733112E-2,-7.2176456E-3,2.2417095E-2,1.0935363E-1,4.5466343E-1,-3.5015044E-1,3.5198353E-2,5.1678605E-2,1.3348334E-1,1.8674884E-2,5.427041E-2,4.106551E-2,-2.880852E-1,8.889905E-2,4.5954425E-2,4.846224E-2,1.8399468E-2,2.8416438E0,1.223034E-1,3.1147045E-1,1.0301666E-1],"split_indices":[0,2,0,6,2,0,3,1,1,1,0,5,3,0,5,2,0,1,4,3,4,3,6,4,0,2,6,2,2,0,6,0,1,0,0,0,0,0,4,5,1,5,5,0,1,4,4,0,5,4,5,2,3,6,4,3,3,4,2,0,1,3,0,0,0,0,0,0,0,0,0,0,0,0,0,0,0,0,0,0,0,0,0,0,0,0,0,0,0,0,0,0,0,0,0,0,0,0,0,0,0,0,0,0,0,0,0,0,0,0,0,0,0,0,0,0,0,0,0],"split_type":[0,0,0,0,0,0,0,0,0,0,0,0,0,0,0,0,0,0,0,0,0,0,0,0,0,0,0,0,0,0,0,0,0,0,0,0,0,0,0,0,0,0,0,0,0,0,0,0,0,0,0,0,0,0,0,0,0,0,0,0,0,0,0,0,0,0,0,0,0,0,0,0,0,0,0,0,0,0,0,0,0,0,0,0,0,0,0,0,0,0,0,0,0,0,0,0,0,0,0,0,0,0,0,0,0,0,0,0,0,0,0,0,0,0,0,0,0,0,0],"sum_hessian":[9.408E4,2.6469E4,6.7611E4,1.2216E4,1.4253E4,5.18E4,1.5811E4,1.2163E4,5.3E1,4.74E2,1.3779E4,2.7158E4,2.4642E4,1.4917E4,8.94E2,1.2156E4,7E0,5E0,4.8E1,1.07E2,3.67E2,5.418E3,8.361E3,2.5856E4,1.302E3,2.4056E4,5.86E2,8.327E3,6.59E3,8E0,8.86E2,2.72E3,9.436E3,5E0,2E0,2E0,3E0,4E0,4.4E1,6.5E1,4.2E1,3.15E2,5.2E1,9E0,5.409E3,5.81E2,7.78E3,2.5637E4,2.19E2,1.262E3,4E1,1.3741E4,1.0315E4,3.06E2,2.8E2,4.398E3,3.929E3,8.89E2,5.701E3,2E0,6E0,3.4E1,8.52E2,2.394E3,3.26E2,8.713E3,7.23E2,3E0,2E0,3E0,1E0,3.8E1,6E0,5.9E1,6E0,3.1E1,1.1E1,1.78E2,1.37E2,6E0,4.6E1,8E0,1E0,5.37E3,3.9E1,5.01E2,8E1,7.752E3,2.8E1,1.019E3,2.4618E4,8.3E1,1.36E2,6.57E2,6.05E2,3.4E1,6E0,1.0908E4,2.833E3,6.434E3,3.881E3,2.84E2,2.2E1,4E0,2.76E2,4.244E3,1.54E2,2.961E3,9.68E2,8.81E2,8E0,4.753E3,9.48E2,3E0,3E0,2E0,3.2E1,4.5E1,8.07E2],"tree_param":{"num_deleted":"0","num_feature":"7","num_nodes":"119","size_leaf_vector":"1"}},{"base_weights":[1.5402777E-3,-5.1255364E0,1.9703715E0,-7.4005284E0,-3.1158805E0,7.3869735E-1,6.03379E0,-7.4952607E0,1.3349492E1,5.5430684E0,-3.393493E0,-2.8843838E-1,1.8859266E0,4.410476E0,7.735616E0,-9.204643E0,-7.004141E0,1.7030971E2,-1.9995571E0,-1.6904153E0,1.2618401E1,-4.979658E0,-2.3205178E0,-5.169616E-1,6.0018134E0,9.6402645E-1,2.9998202E0,4.1162677E0,1.7398397E1,7.1780176E0,1.3798003E1,-6.3444734E0,-9.62766E0,-6.723954E0,-1.025356E1,-2.4054741E-2,2.1408987E0,2.1489456E1,-4.404672E0,-2.564815E0,9.2278373E-1,4.6534145E1,4.7354574E0,3.1014757E1,-5.045271E0,2.361564E0,-2.6705623E0,-5.949814E-1,8.658941E0,8.586558E-2,1.2310286E1,9.4040394E-1,1.0681005E2,4.8765044E0,1.9672271E0,5.376777E0,2.6868978E0,1.0171265E1,4.3081154E1,2.1924335E1,7.048673E0,7.4119576E1,1.3214576E1,-7.683868E-2,-4.5018144E-2,-9.1940306E-2,-1.3856138E-1,-5.661744E-2,-7.5961486E-2,-4.0952957E-1,-9.1822945E-2,3.7194446E-2,4.628475E-1,-6.818222E-2,1.07058674E-1,-4.46853E-2,4.6416894E-2,7.311498E-1,-9.9513985E-2,4.763019E-1,1.8986864E-2,-5.597726E-2,1.8026354E0,1.0392084E-1,-5.1883083E-2,-1.4674426E-2,2.559652E-1,-3.1579673E-2,6.313448E-3,-9.431823E-3,8.784384E-3,2.5681546E-2,2.1481602E-1,5.548558E-3,-3.8541973E-1,1.01073995E-1,9.499407E-1,1.8738192E-2,-1.196957E-2,1.594511E0,7.639632E-3,1.7511733E-1,4.3916762E-2,1.4273422E-2,9.406282E-2,4.5720458E-2,8.294654E-2,1.1782052E-2,5.1156793E-2,3.8987923E-2,2.2633255E-1,5.9333146E-1,1.5697394E-2,4.5840576E-1,4.0424865E-2,3.394348E-2,7.5288795E-2,2.0557516E0,6.713426E-2,1.243412E-1,5.699589E-1],"categories":[],"categories_nodes":[],"categories_segments":[],"categories_sizes":[],"default_left":[0,0,0,0,0,0,0,0,0,0,0,0,0,0,0,0,0,0,0,0,0,0,0,0,0,0,0,0,0,0,0,0,0,0,0,0,0,0,0,0,0,0,0,0,0,0,0,0,0,0,0,0,0,0,0,0,0,0,0,0,0,0,0,0,0,0,0,0,0,0,0,0,0,0,0,0,0,0,0,0,0,0,0,0,0,0,0,0,0,0,0,0,0,0,0,0,0,0,0,0,0,0,0,0,0,0,0,0,0,0,0,0,0,0,0,0,0,0,0,0,0],"id":13,"left_children":[1,3,5,7,9,11,13,15,17,19,21,23,25,27,29,31,33,35,37,39,41,43,45,47,49,51,53,55,57,59,61,63,65,67,69,-1,-1,71,73,75,-1,77,79,81,83,85,87,89,91,93,95,97,99,101,103,105,107,109,111,113,115,117,119,-1,-1,-1,-1,-1,-1,-1,-1,-1,-1,-1,-1,-1,-1,-1,-1,-1,-1,-1,-1,-1,-1,-1,-1,-1,-1,-1,-1,-1,-1,-1,-1,-1,-1,-1,-1,-1,-1,-1,-1,-1,-1,-1,-1,-1,-1,-1,-1,-1,-1,-1,-1,-1,-1,-1,-1,-1,-1],"loss_changes":[9.496965E5,1.19323125E5,3.402124E5,2.4166125E4,3.3340734E4,6.1472055E4,4.3648062E4,1.01675625E4,1.3525517E5,2.2079605E4,2.2848578E4,3.9569426E4,2.5302969E4,3.086064E4,2.599075E4,3.2262031E3,8.554781E3,3.83225E4,3.0323303E3,1.7820264E4,5.8063223E4,1.2954484E4,1.3140746E4,1.9020227E4,3.6013316E4,3.3616734E4,2.161489E4,1.4249891E4,3.2786484E4,1.3330469E4,2.1860977E4,8.3663086E2,4.209047E3,8.0384375E3,2.4289344E4,0E0,0E0,2.0309097E3,1.8235571E3,2.942917E3,0E0,6.228635E4,2.1569059E4,5.5652754E4,1.1999828E4,4.968104E4,1.2003043E4,1.35134375E4,1.7439252E4,9.061309E3,8.410058E4,2.6901438E4,1.662532E4,2.4181719E4,2.8903459E4,9.838219E3,1.3595801E4,1.0933374E4,2.6217953E4,2.590235E4,1.2275781E4,5.1785367E4,2.1296398E4,0E0,0E0,0E0,0E0,0E0,0E0,0E0,0E0,0E0,0E0,0E0,0E0,0E0,0E0,0E0,0E0,0E0,0E0,0E0,0E0,0E0,0E0,0E0,0E0,0E0,0E0,0E0,0E0,0E0,0E0,0E0,0E0,0E0,0E0,0E0,0E0,0E0,0E0,0E0,0E0,0E0,0E0,0E0,0E0,0E0,0E0,0E0,0E0,0E0,0E0,0E0,0E0,0E0,0E0,0E0,0E0,0E0,0E0],"parents":[2147483647,0,0,1,1,2,2,3,3,4,4,5,5,6,6,7,7,8,8,9,9,10,10,11,11,12,12,13,13,14,14,15,15,16,16,17,17,18,18,19,19,20,20,21,21,22,22,23,23,24,24,25,25,26,26,27,27,28,28,29,29,30,30,31,31,32,32,33,33,34,34,37,37,38,38,39,39,41,41,42,42,43,43,44,44,45,45,46,46,47,47,48,48,49,49,50,50,51,51,52,52,53,53,54,54,55,55,56,56,57,57,58,58,59,59,60,60,61,61,62,62],"right_children":[2,4,6,8,10,12,14,16,18,20,22,24,26,28,30,32,34,36,38,40,42,44,46,48,50,52,54,56,58,60,62,64,66,68,70,-1,-1,72,74,76,-1,78,80,82,84,86,88,90,92,94,96,98,100,102,104,106,108,110,112,114,116,118,120,-1,-1,-1,-1,-1,-1,-1,-1,-1,-1,-1,-1,-1,-1,-1,-1,-1,-1,-1,-1,-1,-1,-1,-1,-1,-1,-1,-1,-1,-1,-1,-1,-1,-1,-1,-1,-1,-1,-1,-1,-1,-1,-1,-1,-1,-1,-1,-1,-1,-1,-1,-1,-1,-1,-1,-1,-1,-1],"split_conditions":[2.405E2,1.096E1,9.4977E2,5.2E1,1.103E1,4.9641E2,1.61171E3,7.78E0,2.44E1,2.55E2,7.873E1,5.2E1,9E2,1.45E4,6.7E3,7.39E0,1.6999E2,1.866E1,2.1E1,9.2E1,1.99E1,1E2,1.2E1,1E2,4.4E1,1.03E2,1.805E1,2.122E1,8.3E1,1E2,4.299E1,7.224E1,1.8E1,2.933E1,1.749E2,-2.4054741E-2,2.1408987E0,3.38E1,6.6E1,1.5E1,9.2278373E-1,1.8E1,4E0,6.179E1,1.37E1,3.1E1,8.05E3,1.4999E2,2.779E1,1.3499E3,4.8762E2,1.799E1,5.0293E2,1.7E1,5.4E1,3.5E1,1.975E3,2.05E4,1.76E4,2.457E1,1.938E1,1.73665E3,1.05E2,-7.683868E-2,-4.5018144E-2,-9.1940306E-2,-1.3856138E-1,-5.661744E-2,-7.5961486E-2,-4.0952957E-1,-9.1822945E-2,3.7194446E-2,4.628475E-1,-6.818222E-2,1.07058674E-1,-4.46853E-2,4.6416894E-2,7.311498E-1,-9.9513985E-2,4.763019E-1,1.8986864E-2,-5.597726E-2,1.8026354E0,1.0392084E-1,-5.1883083E-2,-1.4674426E-2,2.559652E-1,-3.1579673E-2,6.313448E-3,-9.431823E-3,8.784384E-3,2.5681546E-2,2.1481602E-1,5.548558E-3,-3.8541973E-1,1.01073995E-1,9.499407E-1,1.8738192E-2,-1.196957E-2,1.594511E0,7.639632E-3,1.7511733E-1,4.3916762E-2,1.4273422E-2,9.406282E-2,4.5720458E-2,8.294654E-2,1.1782052E-2,5.1156793E-2,3.8987923E-2,2.2633255E-1,5.9333146E-1,1.5697394E-2,4.5840576E-1,4.0424865E-2,3.394348E-2,7.5288795E-2,2.0557516E0,6.713426E-2,1.243412E-1,5.699589E-1],"split_indices":[0,2,0,6,2,0,0,2,1,3,0,5,3,3,3,2,1,0,4,1,1,3,6,4,4,4,2,2,4,3,1,0,5,0,1,0,0,0,4,5,0,6,5,0,1,4,3,1,2,1,0,2,0,4,5,4,3,3,3,2,2,0,5,0,0,0,0,0,0,0,0,0,0,0,0,0,0,0,0,0,0,0,0,0,0,0,0,0,0,0,0,0,0,0,0,0,0,0,0,0,0,0,0,0,0,0,0,0,0,0,0,0,0,0,0,0,0,0,0,0,0],"split_type":[0,0,0,0,0,0,0,0,0,0,0,0,0,0,0,0,0,0,0,0,0,0,0,0,0,0,0,0,0,0,0,0,0,0,0,0,0,0,0,0,0,0,0,0,0,0,0,0,0,0,0,0,0,0,0,0,0,0,0,0,0,0,0,0,0,0,0,0,0,0,0,0,0,0,0,0,0,0,0,0,0,0,0,0,0,0,0,0,0,0,0,0,0,0,0,0,0,0,0,0,0,0,0,0,0,0,0,0,0,0,0,0,0,0,0,0,0,0,0,0,0],"sum_hessian":[9.408E4,2.6103E4,6.7977E4,1.2242E4,1.3861E4,5.2166E4,1.5811E4,1.2187E4,5.5E1,4.3E2,1.3431E4,2.7524E4,2.4642E4,8.094E3,7.717E3,2.716E3,9.471E3,4E0,5.1E1,2.13E2,2.17E2,5.418E3,8.013E3,2.656E4,9.64E2,1.3484E4,1.1158E4,7.916E3,1.78E2,7.069E3,6.48E2,3.52E2,2.364E3,8.722E3,7.49E2,1E0,3E0,4E0,4.7E1,2.12E2,1E0,4E1,1.77E2,9E0,5.409E3,5.57E2,7.456E3,2.6337E4,2.23E2,4.98E2,4.66E2,1.3482E4,2E0,3.959E3,7.199E3,4.205E3,3.711E3,1.4E2,3.8E1,6E1,7.009E3,5E0,6.43E2,2.02E2,1.5E2,2.147E3,2.17E2,3.936E3,4.786E3,2.4E1,7.25E2,3E0,1E0,4.1E1,6E0,1.68E2,4.4E1,2.7E1,1.3E1,1E1,1.67E2,8E0,1E0,4.9E1,5.36E3,4.79E2,7.8E1,6.497E3,9.59E2,2.1303E4,5.034E3,1.52E2,7.1E1,4.93E2,5E0,4.55E2,1.1E1,9.384E3,4.098E3,1E0,1E0,1.45E2,3.814E3,6.713E3,4.86E2,3.298E3,9.07E2,2.29E3,1.421E3,9.4E1,4.6E1,2.7E1,1.1E1,2.5E1,3.5E1,8.15E2,6.194E3,1E0,4E0,6.33E2,1E1],"tree_param":{"num_deleted":"0","num_feature":"7","num_nodes":"121","size_leaf_vector":"1"}},{"base_weights":[1.6638716E-3,-5.02538E0,1.9697443E0,-7.322888E0,-3.045046E0,7.475074E-1,5.9737363E0,-7.417093E0,1.29637785E1,5.276733E0,-3.3099384E0,-2.684358E-1,1.867146E0,5.5698667E0,1.2698826E1,-9.102696E0,-6.9323463E0,1.4022227E2,-1.9691979E0,-1.6931248E0,1.1974111E1,-4.92953E0,-2.259965E0,-5.295451E-1,4.9132776E0,1.709516E0,8.324106E0,4.093068E0,7.4350176E0,6.2452423E1,1.2179681E1,-9.508591E0,-6.1020255E0,-6.6549125E0,-1.0151693E1,-2.8676992E-2,2.124842E0,2.137457E1,-4.3598156E0,-2.5551112E0,9.1816974E-1,4.355762E1,4.4462805E0,3.0879276E1,-4.994809E0,2.457259E0,-2.6125116E0,-6.0526174E-1,8.2965975E0,4.0533986E0,3.1281904E1,2.7052112E0,3.829794E-1,1.3375146E1,2.7760885E0,5.349132E0,2.6860662E0,3.785835E0,8.032343E0,1.7873884E0,3.6936085E0,3.5515198E1,1.1207908E1,-9.085323E-2,-1.312002E-1,-6.922137E-2,-5.24491E-3,-5.605141E-2,-7.515992E-2,-4.0559804E-1,-9.090599E-2,3.691549E-2,4.605333E-1,-6.751663E-2,1.0614103E-1,-4.4207472E-2,4.3951757E-2,1.9263111E-1,1.0471318E0,4.7197184E-1,1.6863603E-2,-5.5479683E-2,1.7936224E0,-5.121356E-2,1.2122128E-1,-1.5231546E-2,2.213117E-1,-2.6925933E-2,1.8887018E-1,2.9579164E-2,-7.5286464E-3,-2.7620442E-2,1.5016519E-1,1.941917E-3,8.23707E-2,7.547475E-2,1.4548521E0,1.9419739E-2,5.6422085E-2,-7.131556E-3,2.1998895E-2,9.205057E-1,1.2295945E-1,-3.4778258E-1,3.4439426E-2,5.0632026E-2,1.3145399E-1,1.8240524E-2,5.3182624E-2,2.151259E-1,3.3321403E-2,8.747732E-2,4.4695485E-2,4.730923E-2,1.7328916E-2,2.8223586E0,1.2009826E-1,3.0504206E-1,1.00954846E-1],"categories":[],"categories_nodes":[],"categories_segments":[],"categories_sizes":[],"default_left":[0,0,0,0,0,0,0,0,0,0,0,0,0,0,0,0,0,0,0,0,0,0,0,0,0,0,0,0,0,0,0,0,0,0,0,0,0,0,0,0,0,0,0,0,0,0,0,0,0,0,0,0,0,0,0,0,0,0,0,0,0,0,0,0,0,0,0,0,0,0,0,0,0,0,0,0,0,0,0,0,0,0,0,0,0,0,0,0,0,0,0,0,0,0,0,0,0,0,0,0,0,0,0,0,0,0,0,0,0,0,0,0,0,0,0,0,0,0,0],"id":14,"left_children":[1,3,5,7,9,11,13,15,17,19,21,23,25,27,29,31,33,35,37,39,41,43,45,47,49,51,53,55,57,59,61,63,65,67,69,-1,-1,71,73,75,-1,77,79,81,83,85,87,89,91,93,95,97,99,101,103,105,107,109,111,-1,113,115,117,-1,-1,-1,-1,-1,-1,-1,-1,-1,-1,-1,-1,-1,-1,-1,-1,-1,-1,-1,-1,-1,-1,-1,-1,-1,-1,-1,-1,-1,-1,-1,-1,-1,-1,-1,-1,-1,-1,-1,-1,-1,-1,-1,-1,-1,-1,-1,-1,-1,-1,-1,-1,-1,-1,-1,-1],"loss_changes":[9.308121E5,1.2041181E5,3.3087697E5,2.3512875E4,3.1359281E4,5.8923582E4,4.2875625E4,9.903E3,1.0859597E5,2.0512691E4,2.3422125E4,3.6748562E4,2.5067664E4,4.1060406E4,2.2356594E4,3.2560156E3,8.396875E3,6.264908E4,2.9951023E3,1.7645162E4,5.3063516E4,1.2821469E4,1.391277E4,1.7284877E4,2.9417193E4,3.177407E4,1.6412523E4,1.4703594E4,1.4336375E4,6.083548E4,1.9716297E4,3.5418125E3,1.4921328E3,7.8474062E3,2.3830703E4,0E0,0E0,2.0119673E3,1.7907991E3,2.8072715E3,0E0,6.1869906E4,2.139442E4,5.508335E4,1.1780641E4,4.561031E4,1.34475625E4,1.3486164E4,1.6390383E4,2.0390361E4,1.10034516E5,3.0793477E4,2.05467E4,2.493446E4,7.1674873E3,9.739617E3,8.907426E3,7.399833E3,1.4394625E4,0E0,6.038986E0,1.9958452E5,1.8002234E4,0E0,0E0,0E0,0E0,0E0,0E0,0E0,0E0,0E0,0E0,0E0,0E0,0E0,0E0,0E0,0E0,0E0,0E0,0E0,0E0,0E0,0E0,0E0,0E0,0E0,0E0,0E0,0E0,0E0,0E0,0E0,0E0,0E0,0E0,0E0,0E0,0E0,0E0,0E0,0E0,0E0,0E0,0E0,0E0,0E0,0E0,0E0,0E0,0E0,0E0,0E0,0E0,0E0,0E0,0E0,0E0],"parents":[2147483647,0,0,1,1,2,2,3,3,4,4,5,5,6,6,7,7,8,8,9,9,10,10,11,11,12,12,13,13,14,14,15,15,16,16,17,17,18,18,19,19,20,20,21,21,22,22,23,23,24,24,25,25,26,26,27,27,28,28,29,29,30,30,31,31,32,32,33,33,34,34,37,37,38,38,39,39,41,41,42,42,43,43,44,44,45,45,46,46,47,47,48,48,49,49,50,50,51,51,52,52,53,53,54,54,55,55,56,56,57,57,58,58,60,60,61,61,62,62],"right_children":[2,4,6,8,10,12,14,16,18,20,22,24,26,28,30,32,34,36,38,40,42,44,46,48,50,52,54,56,58,60,62,64,66,68,70,-1,-1,72,74,76,-1,78,80,82,84,86,88,90,92,94,96,98,100,102,104,106,108,110,112,-1,114,116,118,-1,-1,-1,-1,-1,-1,-1,-1,-1,-1,-1,-1,-1,-1,-1,-1,-1,-1,-1,-1,-1,-1,-1,-1,-1,-1,-1,-1,-1,-1,-1,-1,-1,-1,-1,-1,-1,-1,-1,-1,-1,-1,-1,-1,-1,-1,-1,-1,-1,-1,-1,-1,-1,-1,-1,-1],"split_conditions":[2.4644E2,1.096E1,9.4977E2,5.2E1,1.103E1,